<?xml version="1.0"?>
<MethodSetup Method="BDT::BDT_350_200_2">
  <GeneralInfo>
    <Info name="TMVA Release" value="4.2.1 [262657]"/>
    <Info name="ROOT Release" value="6.12/07 [396295]"/>
    <Info name="Creator" value="guerrero"/>
    <Info name="Date" value="Fri Nov  8 11:41:30 2019"/>
    <Info name="Host" value="Linux vocms0301.cern.ch 2.6.32-696.30.1.el6.x86_64 #1 SMP Tue May 22 06:09:36 CEST 2018 x86_64 x86_64 x86_64 GNU/Linux"/>
    <Info name="Dir" value="/uscms_data/d3/guerrero/Run2/HH2019/Fall2019/CMSSW_10_2_5/src/bbbbAnalysis/mlskim/trainingbdts/BackgroundRejection"/>
    <Info name="Training events" value="13646"/>
    <Info name="TrainingTime" value="1.71642995e+00"/>
    <Info name="AnalysisType" value="Classification"/>
  </GeneralInfo>
  <Options>
    <Option name="V" modified="Yes">False</Option>
    <Option name="VerbosityLevel" modified="No">Default</Option>
    <Option name="VarTransform" modified="No">None</Option>
    <Option name="H" modified="Yes">False</Option>
    <Option name="CreateMVAPdfs" modified="No">False</Option>
    <Option name="IgnoreNegWeightsInTraining" modified="No">False</Option>
    <Option name="NTrees" modified="Yes">350</Option>
    <Option name="MaxDepth" modified="Yes">2</Option>
    <Option name="MinNodeSize" modified="Yes">2.5</Option>
    <Option name="nCuts" modified="Yes">200</Option>
    <Option name="BoostType" modified="Yes">Grad</Option>
    <Option name="AdaBoostR2Loss" modified="No">quadratic</Option>
    <Option name="UseBaggedBoost" modified="Yes">True</Option>
    <Option name="Shrinkage" modified="Yes">5.000000e-02</Option>
    <Option name="AdaBoostBeta" modified="No">5.000000e-01</Option>
    <Option name="UseRandomisedTrees" modified="No">False</Option>
    <Option name="UseNvars" modified="No">3</Option>
    <Option name="UsePoissonNvars" modified="No">True</Option>
    <Option name="BaggedSampleFraction" modified="Yes">5.000000e-01</Option>
    <Option name="UseYesNoLeaf" modified="No">True</Option>
    <Option name="NegWeightTreatment" modified="No">pray</Option>
    <Option name="Css" modified="No">1.000000e+00</Option>
    <Option name="Cts_sb" modified="No">1.000000e+00</Option>
    <Option name="Ctb_ss" modified="No">1.000000e+00</Option>
    <Option name="Cbb" modified="No">1.000000e+00</Option>
    <Option name="NodePurityLimit" modified="No">5.000000e-01</Option>
    <Option name="SeparationType" modified="No">giniindex</Option>
    <Option name="RegressionLossFunctionBDTG" modified="No">huber</Option>
    <Option name="HuberQuantile" modified="No">7.000000e-01</Option>
    <Option name="DoBoostMonitor" modified="No">False</Option>
    <Option name="UseFisherCuts" modified="No">False</Option>
    <Option name="MinLinCorrForFisher" modified="No">8.000000e-01</Option>
    <Option name="UseExclusiveVars" modified="No">False</Option>
    <Option name="DoPreselection" modified="No">False</Option>
    <Option name="SigToBkgFraction" modified="No">1.000000e+00</Option>
    <Option name="PruneMethod" modified="No">nopruning</Option>
    <Option name="PruneStrength" modified="No">0.000000e+00</Option>
    <Option name="PruningValFraction" modified="No">5.000000e-01</Option>
    <Option name="SkipNormalization" modified="No">False</Option>
    <Option name="nEventsMin" modified="No">0</Option>
    <Option name="UseBaggedGrad" modified="No">False</Option>
    <Option name="GradBaggingFraction" modified="No">5.000000e-01</Option>
    <Option name="UseNTrainEvents" modified="No">0</Option>
    <Option name="NNodesMax" modified="No">0</Option>
  </Options>
  <Variables NVar="6">
    <Variable VarIndex="0" Expression="H1_pt" Label="H1_pt" Title="H1_pt" Unit="" Internal="H1_pt" Type="F" Min="1.92637119e+01" Max="1.19240405e+03"/>
    <Variable VarIndex="1" Expression="H2_pt" Label="H2_pt" Title="H2_pt" Unit="" Internal="H2_pt" Type="F" Min="1.08494031e+00" Max="8.24301880e+02"/>
    <Variable VarIndex="2" Expression="H1_m" Label="H1_m" Title="H1_m" Unit="" Internal="H1_m" Type="F" Min="7.50214310e+01" Max="1.64771866e+02"/>
    <Variable VarIndex="3" Expression="H2_m" Label="H2_m" Title="H2_m" Unit="" Internal="H2_m" Type="F" Min="6.50529251e+01" Max="1.54932220e+02"/>
    <Variable VarIndex="4" Expression="HH_m" Label="HH_m" Title="HH_m" Unit="" Internal="HH_m" Type="F" Min="1.83817062e+02" Max="4.73458301e+03"/>
    <Variable VarIndex="5" Expression="h1h2_deltaEta" Label="h1h2_deltaEta" Title="h1h2_deltaEta" Unit="" Internal="h1h2_deltaEta" Type="F" Min="2.14891901e-04" Max="8.38031101e+00"/>
  </Variables>
  <Spectators NSpec="0"/>
  <Classes NClass="2">
    <Class Name="Signal" Index="0"/>
    <Class Name="Background" Index="1"/>
  </Classes>
  <Transformations NTransformations="0"/>
  <MVAPdfs/>
  <Weights NTrees="350" AnalysisType="1">
    <BinaryTree type="DecisionTree" boostWeight="1.0000000000000000e+00" itree="0">
      <Node pos="s" depth="0" NCoef="0" IVar="4" Cut="3.4230145263671875e+02" cType="1" res="3.8357637822628021e-03" rms="4.9998527765274048e-01" purity="5.0383573770523071e-01" nType="0">
        <Node pos="l" depth="1" NCoef="0" IVar="1" Cut="7.2831436157226562e+01" cType="1" res="-2.8527054190635681e-01" rms="4.1063451766967773e-01" purity="2.1472944319248199e-01" nType="0">
          <Node pos="l" depth="2" NCoef="0" IVar="-1" Cut="0.0000000000000000e+00" cType="1" res="-3.5670809447765350e-02" rms="3.5037025809288025e-01" purity="1.4329187572002411e-01" nType="-99"/>
          <Node pos="r" depth="2" NCoef="0" IVar="-1" Cut="0.0000000000000000e+00" cType="1" res="-1.6337981447577477e-02" rms="4.7255373001098633e-01" purity="3.3662018179893494e-01" nType="-99"/>
        </Node>
        <Node pos="r" depth="1" NCoef="0" IVar="2" Cut="1.0441989898681641e+02" cType="1" res="9.8500676453113556e-02" rms="4.9020162224769592e-01" purity="5.9850066900253296e-01" nType="0">
          <Node pos="l" depth="2" NCoef="0" IVar="-1" Cut="0.0000000000000000e+00" cType="1" res="-2.2613894194364548e-02" rms="4.4593852758407593e-01" purity="2.7386108040809631e-01" nType="-99"/>
          <Node pos="r" depth="2" NCoef="0" IVar="-1" Cut="0.0000000000000000e+00" cType="1" res="1.6827188432216644e-02" rms="4.7083392739295959e-01" purity="6.6827183961868286e-01" nType="-99"/>
        </Node>
      </Node>
    </BinaryTree>
    <BinaryTree type="DecisionTree" boostWeight="1.0000000000000000e+00" itree="1">
      <Node pos="s" depth="0" NCoef="0" IVar="4" Cut="3.7035461425781250e+02" cType="1" res="-6.9389853160828352e-04" rms="4.9537417292594910e-01" purity="4.9953913688659668e-01" nType="0">
        <Node pos="l" depth="1" NCoef="0" IVar="4" Cut="3.0060791015625000e+02" cType="1" res="-2.3885202407836914e-01" rms="4.3114295601844788e-01" purity="2.5089281797409058e-01" nType="0">
          <Node pos="l" depth="2" NCoef="0" IVar="-1" Cut="0.0000000000000000e+00" cType="1" res="-3.6870226263999939e-02" rms="3.2130095362663269e-01" purity="1.1695606261491776e-01" nType="-99"/>
          <Node pos="r" depth="2" NCoef="0" IVar="-1" Cut="0.0000000000000000e+00" cType="1" res="-1.3671355322003365e-02" rms="4.7690448164939880e-01" purity="3.5662007331848145e-01" nType="-99"/>
        </Node>
        <Node pos="r" depth="1" NCoef="0" IVar="2" Cut="1.0129158020019531e+02" cType="1" res="1.1074967682361603e-01" rms="4.8402726650238037e-01" purity="6.1589056253433228e-01" nType="0">
          <Node pos="l" depth="2" NCoef="0" IVar="-1" Cut="0.0000000000000000e+00" cType="1" res="-2.7947075664997101e-02" rms="4.0685686469078064e-01" purity="2.0936708152294159e-01" nType="-99"/>
          <Node pos="r" depth="2" NCoef="0" IVar="-1" Cut="0.0000000000000000e+00" cType="1" res="1.7261726781725883e-02" rms="4.6609285473823547e-01" purity="6.8031418323516846e-01" nType="-99"/>
        </Node>
      </Node>
    </BinaryTree>
    <BinaryTree type="DecisionTree" boostWeight="1.0000000000000000e+00" itree="2">
      <Node pos="s" depth="0" NCoef="0" IVar="4" Cut="3.3023474121093750e+02" cType="1" res="1.5399687923491001e-02" rms="4.9128630757331848e-01" purity="5.1630914211273193e-01" nType="0">
        <Node pos="l" depth="1" NCoef="0" IVar="4" Cut="2.7309530639648438e+02" cType="1" res="-2.6582467555999756e-01" rms="4.0285658836364746e-01" purity="2.0575870573520660e-01" nType="0">
          <Node pos="l" depth="2" NCoef="0" IVar="-1" Cut="0.0000000000000000e+00" cType="1" res="-3.8487736135721207e-02" rms="2.7733275294303894e-01" purity="8.3984926342964172e-02" nType="-99"/>
          <Node pos="r" depth="2" NCoef="0" IVar="-1" Cut="0.0000000000000000e+00" cType="1" res="-2.1691912785172462e-02" rms="4.3598455190658569e-01" purity="2.5719609856605530e-01" nType="-99"/>
        </Node>
        <Node pos="r" depth="1" NCoef="0" IVar="2" Cut="1.0642369079589844e+02" cType="1" res="8.8327743113040924e-02" rms="4.8583844304084778e-01" purity="5.9684211015701294e-01" nType="0">
          <Node pos="l" depth="2" NCoef="0" IVar="-1" Cut="0.0000000000000000e+00" cType="1" res="-2.0485902205109596e-02" rms="4.4701102375984192e-01" purity="2.7911183238029480e-01" nType="-99"/>
          <Node pos="r" depth="2" NCoef="0" IVar="-1" Cut="0.0000000000000000e+00" cType="1" res="1.5705220401287079e-02" rms="4.6877047419548035e-01" purity="6.7123723030090332e-01" nType="-99"/>
        </Node>
      </Node>
    </BinaryTree>
    <BinaryTree type="DecisionTree" boostWeight="1.0000000000000000e+00" itree="3">
      <Node pos="s" depth="0" NCoef="0" IVar="4" Cut="3.2409970092773438e+02" cType="1" res="-6.3000726513564587e-03" rms="4.8735633492469788e-01" purity="4.9471798539161682e-01" nType="0">
        <Node pos="l" depth="1" NCoef="0" IVar="3" Cut="1.2162233734130859e+02" cType="1" res="-2.7936264872550964e-01" rms="3.8178801536560059e-01" purity="1.7848671972751617e-01" nType="0">
          <Node pos="l" depth="2" NCoef="0" IVar="-1" Cut="0.0000000000000000e+00" cType="1" res="-2.5290405377745628e-02" rms="4.0242990851402283e-01" purity="2.0553545653820038e-01" nType="-99"/>
          <Node pos="r" depth="2" NCoef="0" IVar="-1" Cut="0.0000000000000000e+00" cType="1" res="-3.4448329359292984e-02" rms="3.2285651564598083e-01" purity="1.1871272325515747e-01" nType="-99"/>
        </Node>
        <Node pos="r" depth="1" NCoef="0" IVar="2" Cut="1.0666196441650391e+02" cType="1" res="6.4159139990806580e-02" rms="4.8681363463401794e-01" purity="5.7631611824035645e-01" nType="0">
          <Node pos="l" depth="2" NCoef="0" IVar="-1" Cut="0.0000000000000000e+00" cType="1" res="-2.3634083569049835e-02" rms="4.2391070723533630e-01" purity="2.3779603838920593e-01" nType="-99"/>
          <Node pos="r" depth="2" NCoef="0" IVar="-1" Cut="0.0000000000000000e+00" cType="1" res="1.3284279033541679e-02" rms="4.7423264384269714e-01" purity="6.5357887744903564e-01" nType="-99"/>
        </Node>
      </Node>
    </BinaryTree>
    <BinaryTree type="DecisionTree" boostWeight="1.0000000000000000e+00" itree="4">
      <Node pos="s" depth="0" NCoef="0" IVar="4" Cut="3.3312182617187500e+02" cType="1" res="7.1184886619448662e-03" rms="4.8295983672142029e-01" purity="5.0716233253479004e-01" nType="0">
        <Node pos="l" depth="1" NCoef="0" IVar="4" Cut="3.1177352905273438e+02" cType="1" res="-2.4514825642108917e-01" rms="3.9833897352218628e-01" purity="2.0138037204742432e-01" nType="0">
          <Node pos="l" depth="2" NCoef="0" IVar="-1" Cut="0.0000000000000000e+00" cType="1" res="-2.9008870944380760e-02" rms="3.6103469133377075e-01" purity="1.5540657937526703e-01" nType="-99"/>
          <Node pos="r" depth="2" NCoef="0" IVar="-1" Cut="0.0000000000000000e+00" cType="1" res="-1.1984812095761299e-02" rms="4.7432416677474976e-01" purity="3.4314939379692078e-01" nType="-99"/>
        </Node>
        <Node pos="r" depth="1" NCoef="0" IVar="2" Cut="1.0677943420410156e+02" cType="1" res="8.2278981804847717e-02" rms="4.8047882318496704e-01" purity="5.9826713800430298e-01" nType="0">
          <Node pos="l" depth="2" NCoef="0" IVar="-1" Cut="0.0000000000000000e+00" cType="1" res="-2.0645467564463615e-02" rms="4.3354678153991699e-01" purity="2.5649249553680420e-01" nType="-99"/>
          <Node pos="r" depth="2" NCoef="0" IVar="-1" Cut="0.0000000000000000e+00" cType="1" res="1.5290278941392899e-02" rms="4.6505552530288696e-01" purity="6.8161576986312866e-01" nType="-99"/>
        </Node>
      </Node>
    </BinaryTree>
    <BinaryTree type="DecisionTree" boostWeight="1.0000000000000000e+00" itree="5">
      <Node pos="s" depth="0" NCoef="0" IVar="4" Cut="3.4415899658203125e+02" cType="1" res="1.1647257953882217e-02" rms="4.7974151372909546e-01" purity="5.1301074028015137e-01" nType="0">
        <Node pos="l" depth="1" NCoef="0" IVar="4" Cut="2.7872778320312500e+02" cType="1" res="-2.1593329310417175e-01" rms="4.1036653518676758e-01" purity="2.2434906661510468e-01" nType="0">
          <Node pos="l" depth="2" NCoef="0" IVar="-1" Cut="0.0000000000000000e+00" cType="1" res="-3.3364269882440567e-02" rms="2.9483816027641296e-01" purity="9.6555292606353760e-02" nType="-99"/>
          <Node pos="r" depth="2" NCoef="0" IVar="-1" Cut="0.0000000000000000e+00" cType="1" res="-1.5755582600831985e-02" rms="4.5060604810714722e-01" purity="2.9479682445526123e-01" nType="-99"/>
        </Node>
        <Node pos="r" depth="1" NCoef="0" IVar="2" Cut="1.0621632385253906e+02" cType="1" res="8.6571432650089264e-02" rms="4.7730153799057007e-01" purity="6.0804408788681030e-01" nType="0">
          <Node pos="l" depth="2" NCoef="0" IVar="-1" Cut="0.0000000000000000e+00" cType="1" res="-1.8794482573866844e-02" rms="4.3971753120422363e-01" purity="2.6519840955734253e-01" nType="-99"/>
          <Node pos="r" depth="2" NCoef="0" IVar="-1" Cut="0.0000000000000000e+00" cType="1" res="1.4969646930694580e-02" rms="4.6350941061973572e-01" purity="6.8635684251785278e-01" nType="-99"/>
        </Node>
      </Node>
    </BinaryTree>
    <BinaryTree type="DecisionTree" boostWeight="1.0000000000000000e+00" itree="6">
      <Node pos="s" depth="0" NCoef="0" IVar="1" Cut="1.0613107299804688e+02" cType="1" res="2.8030327521264553e-03" rms="4.7684609889984131e-01" purity="5.0520622730255127e-01" nType="0">
        <Node pos="l" depth="1" NCoef="0" IVar="4" Cut="3.0291357421875000e+02" cType="1" res="-1.7050963640213013e-01" rms="4.4215989112854004e-01" purity="2.9967886209487915e-01" nType="0">
          <Node pos="l" depth="2" NCoef="0" IVar="-1" Cut="0.0000000000000000e+00" cType="1" res="-3.0966846272349358e-02" rms="3.1243035197257996e-01" purity="1.1092958599328995e-01" nType="-99"/>
          <Node pos="r" depth="2" NCoef="0" IVar="-1" Cut="0.0000000000000000e+00" cType="1" res="-1.0967669077217579e-02" rms="4.8020952939987183e-01" purity="3.9015549421310425e-01" nType="-99"/>
        </Node>
        <Node pos="r" depth="1" NCoef="0" IVar="3" Cut="1.0097087097167969e+02" cType="1" res="1.1055408418178558e-01" rms="4.6574199199676514e-01" purity="6.3298559188842773e-01" nType="0">
          <Node pos="l" depth="2" NCoef="0" IVar="-1" Cut="0.0000000000000000e+00" cType="1" res="-1.3917334377765656e-02" rms="4.6751636266708374e-01" purity="3.6860984563827515e-01" nType="-99"/>
          <Node pos="r" depth="2" NCoef="0" IVar="-1" Cut="0.0000000000000000e+00" cType="1" res="1.9599569961428642e-02" rms="4.3429598212242126e-01" purity="7.2205144166946411e-01" nType="-99"/>
        </Node>
      </Node>
    </BinaryTree>
    <BinaryTree type="DecisionTree" boostWeight="1.0000000000000000e+00" itree="7">
      <Node pos="s" depth="0" NCoef="0" IVar="1" Cut="1.0679744720458984e+02" cType="1" res="-5.5694184266030788e-03" rms="4.7350460290908813e-01" purity="4.9679437279701233e-01" nType="0">
        <Node pos="l" depth="1" NCoef="0" IVar="4" Cut="3.1417160034179688e+02" cType="1" res="-1.6030885279178619e-01" rms="4.3986454606056213e-01" purity="3.0084514617919922e-01" nType="0">
          <Node pos="l" depth="2" NCoef="0" IVar="-1" Cut="0.0000000000000000e+00" cType="1" res="-2.6848193258047104e-02" rms="3.4898754954338074e-01" purity="1.4412046968936920e-01" nType="-99"/>
          <Node pos="r" depth="2" NCoef="0" IVar="-1" Cut="0.0000000000000000e+00" cType="1" res="-9.2272479087114334e-03" rms="4.8222923278808594e-01" purity="4.1130211949348450e-01" nType="-99"/>
        </Node>
        <Node pos="r" depth="1" NCoef="0" IVar="3" Cut="9.5446731567382812e+01" cType="1" res="9.1728635132312775e-02" rms="4.6797844767570496e-01" purity="6.2000453472137451e-01" nType="0">
          <Node pos="l" depth="2" NCoef="0" IVar="-1" Cut="0.0000000000000000e+00" cType="1" res="-1.9186802208423615e-02" rms="4.5135113596916199e-01" purity="3.0965685844421387e-01" nType="-99"/>
          <Node pos="r" depth="2" NCoef="0" IVar="-1" Cut="0.0000000000000000e+00" cType="1" res="1.5742896124720573e-02" rms="4.4768291711807251e-01" purity="6.9039875268936157e-01" nType="-99"/>
        </Node>
      </Node>
    </BinaryTree>
    <BinaryTree type="DecisionTree" boostWeight="1.0000000000000000e+00" itree="8">
      <Node pos="s" depth="0" NCoef="0" IVar="4" Cut="3.4785983276367188e+02" cType="1" res="2.1140216849744320e-03" rms="4.7164523601531982e-01" purity="5.0571507215499878e-01" nType="0">
        <Node pos="l" depth="1" NCoef="0" IVar="4" Cut="2.9298492431640625e+02" cType="1" res="-1.9918499886989594e-01" rms="4.0581914782524109e-01" purity="2.2066627442836761e-01" nType="0">
          <Node pos="l" depth="2" NCoef="0" IVar="-1" Cut="0.0000000000000000e+00" cType="1" res="-2.9252015054225922e-02" rms="3.1005868315696716e-01" purity="1.0820136219263077e-01" nType="-99"/>
          <Node pos="r" depth="2" NCoef="0" IVar="-1" Cut="0.0000000000000000e+00" cType="1" res="-1.4542351476848125e-02" rms="4.5488476753234863e-01" purity="3.0235296487808228e-01" nType="-99"/>
        </Node>
        <Node pos="r" depth="1" NCoef="0" IVar="3" Cut="1.0377074432373047e+02" cType="1" res="7.0331074297428131e-02" rms="4.7290337085723877e-01" purity="6.0231357812881470e-01" nType="0">
          <Node pos="l" depth="2" NCoef="0" IVar="-1" Cut="0.0000000000000000e+00" cType="1" res="-1.2972429394721985e-02" rms="4.7098127007484436e-01" purity="3.7718141078948975e-01" nType="-99"/>
          <Node pos="r" depth="2" NCoef="0" IVar="-1" Cut="0.0000000000000000e+00" cType="1" res="1.4478918164968491e-02" rms="4.5232710242271423e-01" purity="6.8455725908279419e-01" nType="-99"/>
        </Node>
      </Node>
    </BinaryTree>
    <BinaryTree type="DecisionTree" boostWeight="1.0000000000000000e+00" itree="9">
      <Node pos="s" depth="0" NCoef="0" IVar="1" Cut="8.7999542236328125e+01" cType="1" res="-6.5259612165391445e-03" rms="4.6880066394805908e-01" purity="4.9559956789016724e-01" nType="0">
        <Node pos="l" depth="1" NCoef="0" IVar="1" Cut="5.8496971130371094e+01" cType="1" res="-1.8628448247909546e-01" rms="4.1853359341621399e-01" purity="2.5335323810577393e-01" nType="0">
          <Node pos="l" depth="2" NCoef="0" IVar="-1" Cut="0.0000000000000000e+00" cType="1" res="-2.4514755234122276e-02" rms="3.7612256407737732e-01" purity="1.8677508831024170e-01" nType="-99"/>
          <Node pos="r" depth="2" NCoef="0" IVar="-1" Cut="0.0000000000000000e+00" cType="1" res="-1.1921828612685204e-02" rms="4.6398407220840454e-01" purity="3.4896978735923767e-01" nType="-99"/>
        </Node>
        <Node pos="r" depth="1" NCoef="0" IVar="3" Cut="9.8744239807128906e+01" cType="1" res="7.0969514548778534e-02" rms="4.6804603934288025e-01" purity="6.0003411769866943e-01" nType="0">
          <Node pos="l" depth="2" NCoef="0" IVar="-1" Cut="0.0000000000000000e+00" cType="1" res="-1.5484166331589222e-02" rms="4.5602712035179138e-01" purity="3.2740545272827148e-01" nType="-99"/>
          <Node pos="r" depth="2" NCoef="0" IVar="-1" Cut="0.0000000000000000e+00" cType="1" res="1.3774724677205086e-02" rms="4.5133423805236816e-01" purity="6.7864423990249634e-01" nType="-99"/>
        </Node>
      </Node>
    </BinaryTree>
    <BinaryTree type="DecisionTree" boostWeight="1.0000000000000000e+00" itree="10">
      <Node pos="s" depth="0" NCoef="0" IVar="1" Cut="9.3109611511230469e+01" cType="1" res="4.8105260357260704e-03" rms="4.6595245599746704e-01" purity="5.0734823942184448e-01" nType="0">
        <Node pos="l" depth="1" NCoef="0" IVar="3" Cut="1.3726268005371094e+02" cType="1" res="-1.6953919827938080e-01" rms="4.2610165476799011e-01" purity="2.6635104417800903e-01" nType="0">
          <Node pos="l" depth="2" NCoef="0" IVar="-1" Cut="0.0000000000000000e+00" cType="1" res="-1.5194507315754890e-02" rms="4.3358638882637024e-01" purity="2.8532743453979492e-01" nType="-99"/>
          <Node pos="r" depth="2" NCoef="0" IVar="-1" Cut="0.0000000000000000e+00" cType="1" res="-3.1353954225778580e-02" rms="3.5009193420410156e-01" purity="1.5637524425983429e-01" nType="-99"/>
        </Node>
        <Node pos="r" depth="1" NCoef="0" IVar="3" Cut="9.5845825195312500e+01" cType="1" res="9.0727202594280243e-02" rms="4.6072602272033691e-01" purity="6.2610775232315063e-01" nType="0">
          <Node pos="l" depth="2" NCoef="0" IVar="-1" Cut="0.0000000000000000e+00" cType="1" res="-1.6963806003332138e-02" rms="4.4697234034538269e-01" purity="3.0339226126670837e-01" nType="-99"/>
          <Node pos="r" depth="2" NCoef="0" IVar="-1" Cut="0.0000000000000000e+00" cType="1" res="1.5348379500210285e-02" rms="4.4290342926979065e-01" purity="7.0105808973312378e-01" nType="-99"/>
        </Node>
      </Node>
    </BinaryTree>
    <BinaryTree type="DecisionTree" boostWeight="1.0000000000000000e+00" itree="11">
      <Node pos="s" depth="0" NCoef="0" IVar="1" Cut="7.7997001647949219e+01" cType="1" res="-1.7543623689562082e-03" rms="4.6440464258193970e-01" purity="4.9860379099845886e-01" nType="0">
        <Node pos="l" depth="1" NCoef="0" IVar="2" Cut="1.0355486297607422e+02" cType="1" res="-1.8503361940383911e-01" rms="4.1025498509407043e-01" purity="2.3123490810394287e-01" nType="0">
          <Node pos="l" depth="2" NCoef="0" IVar="-1" Cut="0.0000000000000000e+00" cType="1" res="-3.0211318284273148e-02" rms="2.8750365972518921e-01" purity="9.2591479420661926e-02" nType="-99"/>
          <Node pos="r" depth="2" NCoef="0" IVar="-1" Cut="0.0000000000000000e+00" cType="1" res="-1.6220267862081528e-02" rms="4.3662491440773010e-01" purity="2.7341592311859131e-01" nType="-99"/>
        </Node>
        <Node pos="r" depth="1" NCoef="0" IVar="2" Cut="1.1129679870605469e+02" cType="1" res="6.2006596475839615e-02" rms="4.6518498659133911e-01" purity="5.9161865711212158e-01" nType="0">
          <Node pos="l" depth="2" NCoef="0" IVar="-1" Cut="0.0000000000000000e+00" cType="1" res="-1.3216238468885422e-02" rms="4.5744344592094421e-01" purity="3.3716145157814026e-01" nType="-99"/>
          <Node pos="r" depth="2" NCoef="0" IVar="-1" Cut="0.0000000000000000e+00" cType="1" res="1.3903200626373291e-02" rms="4.4668105244636536e-01" purity="6.8987691402435303e-01" nType="-99"/>
        </Node>
      </Node>
    </BinaryTree>
    <BinaryTree type="DecisionTree" boostWeight="1.0000000000000000e+00" itree="12">
      <Node pos="s" depth="0" NCoef="0" IVar="4" Cut="3.7086056518554688e+02" cType="1" res="-8.1831961870193481e-03" rms="4.6101614832878113e-01" purity="4.9387964606285095e-01" nType="0">
        <Node pos="l" depth="1" NCoef="0" IVar="4" Cut="3.1128833007812500e+02" cType="1" res="-1.7580424249172211e-01" rms="4.0915364027023315e-01" purity="2.3610177636146545e-01" nType="0">
          <Node pos="l" depth="2" NCoef="0" IVar="-1" Cut="0.0000000000000000e+00" cType="1" res="-2.4920944124460220e-02" rms="3.3811303973197937e-01" purity="1.3213451206684113e-01" nType="-99"/>
          <Node pos="r" depth="2" NCoef="0" IVar="-1" Cut="0.0000000000000000e+00" cType="1" res="-1.2083170004189014e-02" rms="4.6702697873115540e-01" purity="3.4779906272888184e-01" nType="-99"/>
        </Node>
        <Node pos="r" depth="1" NCoef="0" IVar="5" Cut="1.0956448316574097e+00" cType="1" res="7.4362210929393768e-02" rms="4.6272000670433044e-01" purity="6.2082302570343018e-01" nType="0">
          <Node pos="l" depth="2" NCoef="0" IVar="-1" Cut="0.0000000000000000e+00" cType="1" res="1.9285850226879120e-02" rms="4.1508394479751587e-01" purity="7.4455833435058594e-01" nType="-99"/>
          <Node pos="r" depth="2" NCoef="0" IVar="-1" Cut="0.0000000000000000e+00" cType="1" res="-8.0236019566655159e-03" rms="4.7909542918205261e-01" purity="4.5440632104873657e-01" nType="-99"/>
        </Node>
      </Node>
    </BinaryTree>
    <BinaryTree type="DecisionTree" boostWeight="1.0000000000000000e+00" itree="13">
      <Node pos="s" depth="0" NCoef="0" IVar="2" Cut="1.0703833007812500e+02" cType="1" res="-1.1575200594961643e-02" rms="4.5696279406547546e-01" purity="4.8977807164192200e-01" nType="0">
        <Node pos="l" depth="1" NCoef="0" IVar="5" Cut="1.4765138626098633e+00" cType="1" res="-2.1039213240146637e-01" rms="3.8944631814956665e-01" purity="2.0153164863586426e-01" nType="0">
          <Node pos="l" depth="2" NCoef="0" IVar="-1" Cut="0.0000000000000000e+00" cType="1" res="-1.6680417582392693e-02" rms="4.1978827118873596e-01" purity="2.5409138202667236e-01" nType="-99"/>
          <Node pos="r" depth="2" NCoef="0" IVar="-1" Cut="0.0000000000000000e+00" cType="1" res="-3.3769547939300537e-02" rms="2.8176620602607727e-01" purity="8.6054854094982147e-02" nType="-99"/>
        </Node>
        <Node pos="r" depth="1" NCoef="0" IVar="1" Cut="1.1780288696289062e+02" cType="1" res="4.7498308122158051e-02" rms="4.5886838436126709e-01" purity="5.7542335987091064e-01" nType="0">
          <Node pos="l" depth="2" NCoef="0" IVar="-1" Cut="0.0000000000000000e+00" cType="1" res="-1.0682132095098495e-02" rms="4.5379826426506042e-01" purity="3.5283964872360229e-01" nType="-99"/>
          <Node pos="r" depth="2" NCoef="0" IVar="-1" Cut="0.0000000000000000e+00" cType="1" res="1.5701731666922569e-02" rms="4.3254584074020386e-01" purity="7.3067986965179443e-01" nType="-99"/>
        </Node>
      </Node>
    </BinaryTree>
    <BinaryTree type="DecisionTree" boostWeight="1.0000000000000000e+00" itree="14">
      <Node pos="s" depth="0" NCoef="0" IVar="4" Cut="3.4230145263671875e+02" cType="1" res="-4.8661045730113983e-03" rms="4.5433762669563293e-01" purity="4.9497756361961365e-01" nType="0">
        <Node pos="l" depth="1" NCoef="0" IVar="4" Cut="2.9410824584960938e+02" cType="1" res="-1.7702993750572205e-01" rms="3.8084593415260315e-01" purity="1.8918672204017639e-01" nType="0">
          <Node pos="l" depth="2" NCoef="0" IVar="-1" Cut="0.0000000000000000e+00" cType="1" res="-2.5994939729571342e-02" rms="3.0323550105094910e-01" purity="1.0402781516313553e-01" nType="-99"/>
          <Node pos="r" depth="2" NCoef="0" IVar="-1" Cut="0.0000000000000000e+00" cType="1" res="-1.2588841840624809e-02" rms="4.4194298982620239e-01" purity="2.8001010417938232e-01" nType="-99"/>
        </Node>
        <Node pos="r" depth="1" NCoef="0" IVar="2" Cut="1.0179308319091797e+02" cType="1" res="5.4010704159736633e-02" rms="4.6239617466926575e-01" purity="5.9955233335494995e-01" nType="0">
          <Node pos="l" depth="2" NCoef="0" IVar="-1" Cut="0.0000000000000000e+00" cType="1" res="-2.3423297330737114e-02" rms="3.8472104072570801e-01" purity="1.8912357091903687e-01" nType="-99"/>
          <Node pos="r" depth="2" NCoef="0" IVar="-1" Cut="0.0000000000000000e+00" cType="1" res="9.9629331380128860e-03" rms="4.5827072858810425e-01" purity="6.6246324777603149e-01" nType="-99"/>
        </Node>
      </Node>
    </BinaryTree>
    <BinaryTree type="DecisionTree" boostWeight="1.0000000000000000e+00" itree="15">
      <Node pos="s" depth="0" NCoef="0" IVar="4" Cut="3.2627862548828125e+02" cType="1" res="9.4772578449919820e-04" rms="4.5074719190597534e-01" purity="4.9741306900978088e-01" nType="0">
        <Node pos="l" depth="1" NCoef="0" IVar="3" Cut="1.2885037231445312e+02" cType="1" res="-1.8296433985233307e-01" rms="3.6308622360229492e-01" purity="1.6164089739322662e-01" nType="0">
          <Node pos="l" depth="2" NCoef="0" IVar="-1" Cut="0.0000000000000000e+00" cType="1" res="-1.8652621656656265e-02" rms="3.7387466430664062e-01" purity="1.7559282481670380e-01" nType="-99"/>
          <Node pos="r" depth="2" NCoef="0" IVar="-1" Cut="0.0000000000000000e+00" cType="1" res="-2.7532469481229782e-02" rms="3.0496883392333984e-01" purity="1.0330431908369064e-01" nType="-99"/>
        </Node>
        <Node pos="r" depth="1" NCoef="0" IVar="5" Cut="1.4181430339813232e+00" cType="1" res="5.5605173110961914e-02" rms="4.5971256494522095e-01" purity="5.9720236063003540e-01" nType="0">
          <Node pos="l" depth="2" NCoef="0" IVar="-1" Cut="0.0000000000000000e+00" cType="1" res="1.2610293924808502e-02" rms="4.4000801444053650e-01" purity="6.7696094512939453e-01" nType="-99"/>
          <Node pos="r" depth="2" NCoef="0" IVar="-1" Cut="0.0000000000000000e+00" cType="1" res="-1.2029330246150494e-02" rms="4.6498808264732361e-01" purity="3.8928237557411194e-01" nType="-99"/>
        </Node>
      </Node>
    </BinaryTree>
    <BinaryTree type="DecisionTree" boostWeight="1.0000000000000000e+00" itree="16">
      <Node pos="s" depth="0" NCoef="0" IVar="4" Cut="3.6078817749023438e+02" cType="1" res="-7.7980156056582928e-03" rms="4.5124515891075134e-01" purity="4.9212712049484253e-01" nType="0">
        <Node pos="l" depth="1" NCoef="0" IVar="1" Cut="5.5987529754638672e+01" cType="1" res="-1.4808356761932373e-01" rms="4.0091145038604736e-01" purity="2.2644522786140442e-01" nType="0">
          <Node pos="l" depth="2" NCoef="0" IVar="-1" Cut="0.0000000000000000e+00" cType="1" res="-2.4772094562649727e-02" rms="3.1354588270187378e-01" purity="1.1448611319065094e-01" nType="-99"/>
          <Node pos="r" depth="2" NCoef="0" IVar="-1" Cut="0.0000000000000000e+00" cType="1" res="-9.7154537215828896e-03" rms="4.5244124531745911e-01" purity="3.1810334324836731e-01" nType="-99"/>
        </Node>
        <Node pos="r" depth="1" NCoef="0" IVar="5" Cut="1.0362273454666138e+00" cType="1" res="5.3020387887954712e-02" rms="4.5824289321899414e-01" purity="6.0730898380279541e-01" nType="0">
          <Node pos="l" depth="2" NCoef="0" IVar="-1" Cut="0.0000000000000000e+00" cType="1" res="1.5749337151646614e-02" rms="4.2216280102729797e-01" purity="7.2901594638824463e-01" nType="-99"/>
          <Node pos="r" depth="2" NCoef="0" IVar="-1" Cut="0.0000000000000000e+00" cType="1" res="-7.3386030271649361e-03" rms="4.7176280617713928e-01" purity="4.5298409461975098e-01" nType="-99"/>
        </Node>
      </Node>
    </BinaryTree>
    <BinaryTree type="DecisionTree" boostWeight="1.0000000000000000e+00" itree="17">
      <Node pos="s" depth="0" NCoef="0" IVar="4" Cut="3.4810104370117188e+02" cType="1" res="4.7664120211265981e-04" rms="4.4783958792686462e-01" purity="4.9892777204513550e-01" nType="0">
        <Node pos="l" depth="1" NCoef="0" IVar="2" Cut="1.3023823547363281e+02" cType="1" res="-1.5640322864055634e-01" rms="3.8274002075195312e-01" purity="1.9735945761203766e-01" nType="0">
          <Node pos="l" depth="2" NCoef="0" IVar="-1" Cut="0.0000000000000000e+00" cType="1" res="-1.3314845040440559e-02" rms="3.9969474077224731e-01" purity="2.2789774835109711e-01" nType="-99"/>
          <Node pos="r" depth="2" NCoef="0" IVar="-1" Cut="0.0000000000000000e+00" cType="1" res="-2.5032503530383110e-02" rms="3.3673170208930969e-01" purity="1.3948497176170349e-01" nType="-99"/>
        </Node>
        <Node pos="r" depth="1" NCoef="0" IVar="5" Cut="1.5124483108520508e+00" cType="1" res="6.1450533568859100e-02" rms="4.5639044046401978e-01" purity="6.1613714694976807e-01" nType="0">
          <Node pos="l" depth="2" NCoef="0" IVar="-1" Cut="0.0000000000000000e+00" cType="1" res="1.2687367387115955e-02" rms="4.3569841980934143e-01" purity="6.9348889589309692e-01" nType="-99"/>
          <Node pos="r" depth="2" NCoef="0" IVar="-1" Cut="0.0000000000000000e+00" cType="1" res="-1.2254352681338787e-02" rms="4.6888300776481628e-01" purity="3.8424032926559448e-01" nType="-99"/>
        </Node>
      </Node>
    </BinaryTree>
    <BinaryTree type="DecisionTree" boostWeight="1.0000000000000000e+00" itree="18">
      <Node pos="s" depth="0" NCoef="0" IVar="2" Cut="1.0990458679199219e+02" cType="1" res="-1.0904570110142231e-02" rms="4.5064777135848999e-01" purity="4.9217683076858521e-01" nType="0">
        <Node pos="l" depth="1" NCoef="0" IVar="4" Cut="5.6661352539062500e+02" cType="1" res="-1.5785850584506989e-01" rms="4.0575063228607178e-01" purity="2.4759957194328308e-01" nType="0">
          <Node pos="l" depth="2" NCoef="0" IVar="-1" Cut="0.0000000000000000e+00" cType="1" res="-1.2616949155926704e-02" rms="4.1798669099807739e-01" purity="2.7953177690505981e-01" nType="-99"/>
          <Node pos="r" depth="2" NCoef="0" IVar="-1" Cut="0.0000000000000000e+00" cType="1" res="-3.4362874925136566e-02" rms="2.9147988557815552e-01" purity="1.1344856768846512e-01" nType="-99"/>
        </Node>
        <Node pos="r" depth="1" NCoef="0" IVar="2" Cut="1.4142367553710938e+02" cType="1" res="4.4133983552455902e-02" rms="4.5427593588829041e-01" purity="5.8377814292907715e-01" nType="0">
          <Node pos="l" depth="2" NCoef="0" IVar="-1" Cut="0.0000000000000000e+00" cType="1" res="1.0032767429947853e-02" rms="4.4118976593017578e-01" purity="6.3887214660644531e-01" nType="-99"/>
          <Node pos="r" depth="2" NCoef="0" IVar="-1" Cut="0.0000000000000000e+00" cType="1" res="-2.0418025553226471e-02" rms="4.3880689144134521e-01" purity="3.2538664340972900e-01" nType="-99"/>
        </Node>
      </Node>
    </BinaryTree>
    <BinaryTree type="DecisionTree" boostWeight="1.0000000000000000e+00" itree="19">
      <Node pos="s" depth="0" NCoef="0" IVar="2" Cut="1.0458787536621094e+02" cType="1" res="8.8497344404459000e-03" rms="4.4860234856605530e-01" purity="5.1085072755813599e-01" nType="0">
        <Node pos="l" depth="1" NCoef="0" IVar="4" Cut="5.1952764892578125e+02" cType="1" res="-1.5771244466304779e-01" rms="3.9825060963630676e-01" purity="2.2040502727031708e-01" nType="0">
          <Node pos="l" depth="2" NCoef="0" IVar="-1" Cut="0.0000000000000000e+00" cType="1" res="-1.2336215004324913e-02" rms="4.1571933031082153e-01" purity="2.5578108429908752e-01" nType="-99"/>
          <Node pos="r" depth="2" NCoef="0" IVar="-1" Cut="0.0000000000000000e+00" cType="1" res="-2.8970098122954369e-02" rms="3.1924569606781006e-01" purity="1.2786781787872314e-01" nType="-99"/>
        </Node>
        <Node pos="r" depth="1" NCoef="0" IVar="2" Cut="1.4307617187500000e+02" cType="1" res="4.9779105931520462e-02" rms="4.5080998539924622e-01" purity="5.8222204446792603e-01" nType="0">
          <Node pos="l" depth="2" NCoef="0" IVar="-1" Cut="0.0000000000000000e+00" cType="1" res="9.9497027695178986e-03" rms="4.3947535753250122e-01" purity="6.3299363851547241e-01" nType="-99"/>
          <Node pos="r" depth="2" NCoef="0" IVar="-1" Cut="0.0000000000000000e+00" cType="1" res="-2.2700650617480278e-02" rms="4.2637196183204651e-01" purity="2.7661320567131042e-01" nType="-99"/>
        </Node>
      </Node>
    </BinaryTree>
    <BinaryTree type="DecisionTree" boostWeight="1.0000000000000000e+00" itree="20">
      <Node pos="s" depth="0" NCoef="0" IVar="2" Cut="1.0462059020996094e+02" cType="1" res="-1.0490695014595985e-02" rms="4.4459974765777588e-01" purity="4.9044156074523926e-01" nType="0">
        <Node pos="l" depth="1" NCoef="0" IVar="2" Cut="9.0148094177246094e+01" cType="1" res="-1.8421278893947601e-01" rms="3.7227684259414673e-01" purity="1.8275949358940125e-01" nType="0">
          <Node pos="l" depth="2" NCoef="0" IVar="-1" Cut="0.0000000000000000e+00" cType="1" res="-3.0106607824563980e-02" rms="2.7930372953414917e-01" purity="8.8760562241077423e-02" nType="-99"/>
          <Node pos="r" depth="2" NCoef="0" IVar="-1" Cut="0.0000000000000000e+00" cType="1" res="-1.4684317633509636e-02" rms="4.0706661343574524e-01" purity="2.3565620183944702e-01" nType="-99"/>
        </Node>
        <Node pos="r" depth="1" NCoef="0" IVar="2" Cut="1.4527897644042969e+02" cType="1" res="3.1588722020387650e-02" rms="4.5044240355491638e-01" purity="5.6496906280517578e-01" nType="0">
          <Node pos="l" depth="2" NCoef="0" IVar="-1" Cut="0.0000000000000000e+00" cType="1" res="7.3717511259019375e-03" rms="4.4358170032501221e-01" purity="6.1075031757354736e-01" nType="-99"/>
          <Node pos="r" depth="2" NCoef="0" IVar="-1" Cut="0.0000000000000000e+00" cType="1" res="-2.4583296850323677e-02" rms="4.0657761693000793e-01" purity="2.4454124271869659e-01" nType="-99"/>
        </Node>
      </Node>
    </BinaryTree>
    <BinaryTree type="DecisionTree" boostWeight="1.0000000000000000e+00" itree="21">
      <Node pos="s" depth="0" NCoef="0" IVar="1" Cut="7.7555320739746094e+01" cType="1" res="7.0633804425597191e-03" rms="4.4472900032997131e-01" purity="5.0718969106674194e-01" nType="0">
        <Node pos="l" depth="1" NCoef="0" IVar="3" Cut="1.3818176269531250e+02" cType="1" res="-1.3667094707489014e-01" rms="4.0265730023384094e-01" purity="2.3081742227077484e-01" nType="0">
          <Node pos="l" depth="2" NCoef="0" IVar="-1" Cut="0.0000000000000000e+00" cType="1" res="-1.3311753980815411e-02" rms="4.0616765618324280e-01" purity="2.4166983366012573e-01" nType="-99"/>
          <Node pos="r" depth="2" NCoef="0" IVar="-1" Cut="0.0000000000000000e+00" cType="1" res="-2.7546001598238945e-02" rms="3.5510295629501343e-01" purity="1.5836751461029053e-01" nType="-99"/>
        </Node>
        <Node pos="r" depth="1" NCoef="0" IVar="3" Cut="1.0319331359863281e+02" cType="1" res="5.5500742048025131e-02" rms="4.4776076078414917e-01" purity="6.0032504796981812e-01" nType="0">
          <Node pos="l" depth="2" NCoef="0" IVar="-1" Cut="0.0000000000000000e+00" cType="1" res="-1.0507937520742416e-02" rms="4.5412847399711609e-01" purity="3.7780261039733887e-01" nType="-99"/>
          <Node pos="r" depth="2" NCoef="0" IVar="-1" Cut="0.0000000000000000e+00" cType="1" res="1.2789762578904629e-02" rms="4.2850753664970398e-01" purity="6.9370585680007935e-01" nType="-99"/>
        </Node>
      </Node>
    </BinaryTree>
    <BinaryTree type="DecisionTree" boostWeight="1.0000000000000000e+00" itree="22">
      <Node pos="s" depth="0" NCoef="0" IVar="2" Cut="1.0086862945556641e+02" cType="1" res="-4.7278874553740025e-03" rms="4.4208300113677979e-01" purity="4.9297484755516052e-01" nType="0">
        <Node pos="l" depth="1" NCoef="0" IVar="4" Cut="6.3332873535156250e+02" cType="1" res="-1.9005487859249115e-01" rms="3.5445758700370789e-01" purity="1.5684923529624939e-01" nType="0">
          <Node pos="l" depth="2" NCoef="0" IVar="-1" Cut="0.0000000000000000e+00" cType="1" res="-1.8447576090693474e-02" rms="3.7329724431037903e-01" purity="1.8062831461429596e-01" nType="-99"/>
          <Node pos="r" depth="2" NCoef="0" IVar="-1" Cut="0.0000000000000000e+00" cType="1" res="-3.5461727529764175e-02" rms="1.8660946190357208e-01" purity="3.7314873188734055e-02" nType="-99"/>
        </Node>
        <Node pos="r" depth="1" NCoef="0" IVar="2" Cut="1.3891928100585938e+02" cType="1" res="2.9532115906476974e-02" rms="4.4812631607055664e-01" purity="5.5511188507080078e-01" nType="0">
          <Node pos="l" depth="2" NCoef="0" IVar="-1" Cut="0.0000000000000000e+00" cType="1" res="8.0022094771265984e-03" rms="4.3805214762687683e-01" purity="6.0917937755584717e-01" nType="-99"/>
          <Node pos="r" depth="2" NCoef="0" IVar="-1" Cut="0.0000000000000000e+00" cType="1" res="-1.6373159363865852e-02" rms="4.4139271974563599e-01" purity="3.3530229330062866e-01" nType="-99"/>
        </Node>
      </Node>
    </BinaryTree>
    <BinaryTree type="DecisionTree" boostWeight="1.0000000000000000e+00" itree="23">
      <Node pos="s" depth="0" NCoef="0" IVar="1" Cut="9.1188285827636719e+01" cType="1" res="3.6729315761476755e-03" rms="4.4108867645263672e-01" purity="5.0582116842269897e-01" nType="0">
        <Node pos="l" depth="1" NCoef="0" IVar="3" Cut="1.3826480102539062e+02" cType="1" res="-1.2420539557933807e-01" rms="4.1071221232414246e-01" purity="2.5305262207984924e-01" nType="0">
          <Node pos="l" depth="2" NCoef="0" IVar="-1" Cut="0.0000000000000000e+00" cType="1" res="-1.1756457388401031e-02" rms="4.1479784250259399e-01" purity="2.6733136177062988e-01" nType="-99"/>
          <Node pos="r" depth="2" NCoef="0" IVar="-1" Cut="0.0000000000000000e+00" cType="1" res="-2.8133217245340347e-02" rms="3.5042569041252136e-01" purity="1.4935007691383362e-01" nType="-99"/>
        </Node>
        <Node pos="r" depth="1" NCoef="0" IVar="2" Cut="1.0818123626708984e+02" cType="1" res="5.9369854629039764e-02" rms="4.4227170944213867e-01" purity="6.1591356992721558e-01" nType="0">
          <Node pos="l" depth="2" NCoef="0" IVar="-1" Cut="0.0000000000000000e+00" cType="1" res="-1.1720553040504456e-02" rms="4.3410056829452515e-01" purity="3.0029582977294922e-01" nType="-99"/>
          <Node pos="r" depth="2" NCoef="0" IVar="-1" Cut="0.0000000000000000e+00" cType="1" res="1.1774720624089241e-02" rms="4.3171450495719910e-01" purity="7.1171736717224121e-01" nType="-99"/>
        </Node>
      </Node>
    </BinaryTree>
    <BinaryTree type="DecisionTree" boostWeight="1.0000000000000000e+00" itree="24">
      <Node pos="s" depth="0" NCoef="0" IVar="4" Cut="2.9801699829101562e+02" cType="1" res="9.9089490249752998e-03" rms="4.3962353467941284e-01" purity="5.1103597879409790e-01" nType="0">
        <Node pos="l" depth="1" NCoef="0" IVar="4" Cut="2.5971676635742188e+02" cType="1" res="-1.7772981524467468e-01" rms="3.0976763367652893e-01" purity="1.1018017679452896e-01" nType="0">
          <Node pos="l" depth="2" NCoef="0" IVar="-1" Cut="0.0000000000000000e+00" cType="1" res="-2.8238637372851372e-02" rms="2.2042372822761536e-01" purity="5.1101479679346085e-02" nType="-99"/>
          <Node pos="r" depth="2" NCoef="0" IVar="-1" Cut="0.0000000000000000e+00" cType="1" res="-1.8178354948759079e-02" rms="3.4979903697967529e-01" purity="1.4562359452247620e-01" nType="-99"/>
        </Node>
        <Node pos="r" depth="1" NCoef="0" IVar="5" Cut="9.1345936059951782e-01" cType="1" res="3.9224024862051010e-02" rms="4.4956886768341064e-01" purity="5.7366228103637695e-01" nType="0">
          <Node pos="l" depth="2" NCoef="0" IVar="-1" Cut="0.0000000000000000e+00" cType="1" res="1.2463806197047234e-02" rms="4.2501261830329895e-01" purity="6.8225359916687012e-01" nType="-99"/>
          <Node pos="r" depth="2" NCoef="0" IVar="-1" Cut="0.0000000000000000e+00" cType="1" res="-4.8260577023029327e-03" rms="4.6052339673042297e-01" purity="4.5381811261177063e-01" nType="-99"/>
        </Node>
      </Node>
    </BinaryTree>
    <BinaryTree type="DecisionTree" boostWeight="1.0000000000000000e+00" itree="25">
      <Node pos="s" depth="0" NCoef="0" IVar="1" Cut="1.1780288696289062e+02" cType="1" res="-1.4651981473434716e-04" rms="4.3856814503669739e-01" purity="5.0484859943389893e-01" nType="0">
        <Node pos="l" depth="1" NCoef="0" IVar="4" Cut="3.6234265136718750e+02" cType="1" res="-9.1191977262496948e-02" rms="4.2907869815826416e-01" purity="3.1383466720581055e-01" nType="0">
          <Node pos="l" depth="2" NCoef="0" IVar="-1" Cut="0.0000000000000000e+00" cType="1" res="-1.5527145005762577e-02" rms="3.9219322800636292e-01" purity="2.0688286423683167e-01" nType="-99"/>
          <Node pos="r" depth="2" NCoef="0" IVar="-1" Cut="0.0000000000000000e+00" cType="1" res="-2.4140011519193649e-03" rms="4.7349295020103455e-01" purity="4.8194992542266846e-01" nType="-99"/>
        </Node>
        <Node pos="r" depth="1" NCoef="0" IVar="2" Cut="1.0474959564208984e+02" cType="1" res="6.6585905849933624e-02" rms="4.3341425061225891e-01" purity="6.4485365152359009e-01" nType="0">
          <Node pos="l" depth="2" NCoef="0" IVar="-1" Cut="0.0000000000000000e+00" cType="1" res="-1.5026530250906944e-02" rms="4.1670060157775879e-01" purity="2.4825331568717957e-01" nType="-99"/>
          <Node pos="r" depth="2" NCoef="0" IVar="-1" Cut="0.0000000000000000e+00" cType="1" res="1.2179641984403133e-02" rms="4.2336729168891907e-01" purity="7.3386943340301514e-01" nType="-99"/>
        </Node>
      </Node>
    </BinaryTree>
    <BinaryTree type="DecisionTree" boostWeight="1.0000000000000000e+00" itree="26">
      <Node pos="s" depth="0" NCoef="0" IVar="5" Cut="1.3104813098907471e+00" cType="1" res="-8.1027783453464508e-03" rms="4.3693116307258606e-01" purity="4.9443733692169189e-01" nType="0">
        <Node pos="l" depth="1" NCoef="0" IVar="4" Cut="3.4349395751953125e+02" cType="1" res="4.2695809155702591e-02" rms="4.2803728580474854e-01" purity="5.6569725275039673e-01" nType="0">
          <Node pos="l" depth="2" NCoef="0" IVar="-1" Cut="0.0000000000000000e+00" cType="1" res="-1.2533106841146946e-02" rms="3.9710989594459534e-01" purity="2.1781873703002930e-01" nType="-99"/>
          <Node pos="r" depth="2" NCoef="0" IVar="-1" Cut="0.0000000000000000e+00" cType="1" res="1.0201182216405869e-02" rms="4.2604637145996094e-01" purity="6.8624186515808105e-01" nType="-99"/>
        </Node>
        <Node pos="r" depth="1" NCoef="0" IVar="4" Cut="7.0276928710937500e+02" cType="1" res="-1.2516403198242188e-01" rms="4.3472599983215332e-01" purity="3.3022463321685791e-01" nType="0">
          <Node pos="l" depth="2" NCoef="0" IVar="-1" Cut="0.0000000000000000e+00" cType="1" res="-9.7813121974468231e-03" rms="4.3864390254020691e-01" purity="3.5503113269805908e-01" nType="-99"/>
          <Node pos="r" depth="2" NCoef="0" IVar="-1" Cut="0.0000000000000000e+00" cType="1" res="-3.1279020011425018e-02" rms="3.7144443392753601e-01" purity="2.1069480478763580e-01" nType="-99"/>
        </Node>
      </Node>
    </BinaryTree>
    <BinaryTree type="DecisionTree" boostWeight="1.0000000000000000e+00" itree="27">
      <Node pos="s" depth="0" NCoef="0" IVar="1" Cut="7.8901466369628906e+01" cType="1" res="-9.2490488896146417e-04" rms="4.3172994256019592e-01" purity="4.9717131257057190e-01" nType="0">
        <Node pos="l" depth="1" NCoef="0" IVar="0" Cut="2.5427053833007812e+02" cType="1" res="-1.2559886276721954e-01" rms="3.8190555572509766e-01" purity="2.0973853766918182e-01" nType="0">
          <Node pos="l" depth="2" NCoef="0" IVar="-1" Cut="0.0000000000000000e+00" cType="1" res="-1.7137629911303520e-02" rms="3.6243799328804016e-01" purity="1.7775838077068329e-01" nType="-99"/>
          <Node pos="r" depth="2" NCoef="0" IVar="-1" Cut="0.0000000000000000e+00" cType="1" res="1.0705168824642897e-03" rms="4.7976166009902954e-01" purity="4.4208875298500061e-01" nType="-99"/>
        </Node>
        <Node pos="r" depth="1" NCoef="0" IVar="3" Cut="1.0378733062744141e+02" cType="1" res="4.5603532344102859e-02" rms="4.3994787335395813e-01" purity="6.0444146394729614e-01" nType="0">
          <Node pos="l" depth="2" NCoef="0" IVar="-1" Cut="0.0000000000000000e+00" cType="1" res="-1.0195245966315269e-02" rms="4.4378605484962463e-01" purity="3.7962859869003296e-01" nType="-99"/>
          <Node pos="r" depth="2" NCoef="0" IVar="-1" Cut="0.0000000000000000e+00" cType="1" res="1.0892979800701141e-02" rms="4.2598122358322144e-01" purity="6.9188463687896729e-01" nType="-99"/>
        </Node>
      </Node>
    </BinaryTree>
    <BinaryTree type="DecisionTree" boostWeight="1.0000000000000000e+00" itree="28">
      <Node pos="s" depth="0" NCoef="0" IVar="1" Cut="1.0572861480712891e+02" cType="1" res="-3.6340176593512297e-03" rms="4.3730118870735168e-01" purity="5.0307458639144897e-01" nType="0">
        <Node pos="l" depth="1" NCoef="0" IVar="3" Cut="1.4025045776367188e+02" cType="1" res="-9.0799495577812195e-02" rms="4.2315930128097534e-01" purity="2.8646975755691528e-01" nType="0">
          <Node pos="l" depth="2" NCoef="0" IVar="-1" Cut="0.0000000000000000e+00" cType="1" res="-8.2517275586724281e-03" rms="4.2361575365066528e-01" purity="2.9914635419845581e-01" nType="-99"/>
          <Node pos="r" depth="2" NCoef="0" IVar="-1" Cut="0.0000000000000000e+00" cType="1" res="-3.1441990286111832e-02" rms="3.5915982723236084e-01" purity="1.4542052149772644e-01" nType="-99"/>
        </Node>
        <Node pos="r" depth="1" NCoef="0" IVar="5" Cut="1.9343061447143555e+00" cType="1" res="4.6654671430587769e-02" rms="4.3742471933364868e-01" purity="6.2804114818572998e-01" nType="0">
          <Node pos="l" depth="2" NCoef="0" IVar="-1" Cut="0.0000000000000000e+00" cType="1" res="8.0444533377885818e-03" rms="4.2935663461685181e-01" purity="6.6179913282394409e-01" nType="-99"/>
          <Node pos="r" depth="2" NCoef="0" IVar="-1" Cut="0.0000000000000000e+00" cType="1" res="-2.9177390038967133e-02" rms="4.0007567405700684e-01" purity="2.2962713241577148e-01" nType="-99"/>
        </Node>
      </Node>
    </BinaryTree>
    <BinaryTree type="DecisionTree" boostWeight="1.0000000000000000e+00" itree="29">
      <Node pos="s" depth="0" NCoef="0" IVar="3" Cut="9.4999763488769531e+01" cType="1" res="-2.5065400404855609e-04" rms="4.3381580710411072e-01" purity="5.0349700450897217e-01" nType="0">
        <Node pos="l" depth="1" NCoef="0" IVar="4" Cut="6.3662957763671875e+02" cType="1" res="-1.5516567230224609e-01" rms="4.0565410256385803e-01" purity="2.6081779599189758e-01" nType="0">
          <Node pos="l" depth="2" NCoef="0" IVar="-1" Cut="0.0000000000000000e+00" cType="1" res="-1.2458859942853451e-02" rms="4.1586413979530334e-01" purity="2.9894244670867920e-01" nType="-99"/>
          <Node pos="r" depth="2" NCoef="0" IVar="-1" Cut="0.0000000000000000e+00" cType="1" res="-3.9072349667549133e-02" rms="2.6284939050674438e-01" purity="7.3268681764602661e-02" nType="-99"/>
        </Node>
        <Node pos="r" depth="1" NCoef="0" IVar="1" Cut="1.2019883728027344e+02" cType="1" res="3.3223502337932587e-02" rms="4.3243303894996643e-01" purity="5.5593538284301758e-01" nType="0">
          <Node pos="l" depth="2" NCoef="0" IVar="-1" Cut="0.0000000000000000e+00" cType="1" res="-6.2018646858632565e-03" rms="4.3945255875587463e-01" purity="3.5340780019760132e-01" nType="-99"/>
          <Node pos="r" depth="2" NCoef="0" IVar="-1" Cut="0.0000000000000000e+00" cType="1" res="1.1672173626720905e-02" rms="4.1245022416114807e-01" purity="7.2292959690093994e-01" nType="-99"/>
        </Node>
      </Node>
    </BinaryTree>
    <BinaryTree type="DecisionTree" boostWeight="1.0000000000000000e+00" itree="30">
      <Node pos="s" depth="0" NCoef="0" IVar="2" Cut="1.0493824005126953e+02" cType="1" res="5.7024625129997730e-03" rms="4.2896056175231934e-01" purity="5.0340473651885986e-01" nType="0">
        <Node pos="l" depth="1" NCoef="0" IVar="2" Cut="8.9902832031250000e+01" cType="1" res="-1.5615484118461609e-01" rms="3.5728523135185242e-01" purity="1.7379006743431091e-01" nType="0">
          <Node pos="l" depth="2" NCoef="0" IVar="-1" Cut="0.0000000000000000e+00" cType="1" res="-2.8341254219412804e-02" rms="2.6304870843887329e-01" purity="7.9906165599822998e-02" nType="-99"/>
          <Node pos="r" depth="2" NCoef="0" IVar="-1" Cut="0.0000000000000000e+00" cType="1" res="-1.3650430366396904e-02" rms="3.8809597492218018e-01" purity="2.1811841428279877e-01" nType="-99"/>
        </Node>
        <Node pos="r" depth="1" NCoef="0" IVar="2" Cut="1.4215882873535156e+02" cType="1" res="4.6619828790426254e-02" rms="4.3584001064300537e-01" purity="5.8673095703125000e-01" nType="0">
          <Node pos="l" depth="2" NCoef="0" IVar="-1" Cut="0.0000000000000000e+00" cType="1" res="9.2420279979705811e-03" rms="4.2534458637237549e-01" purity="6.3840568065643311e-01" nType="-99"/>
          <Node pos="r" depth="2" NCoef="0" IVar="-1" Cut="0.0000000000000000e+00" cType="1" res="-1.6599548980593681e-02" rms="4.3726441264152527e-01" purity="3.1004714965820312e-01" nType="-99"/>
        </Node>
      </Node>
    </BinaryTree>
    <BinaryTree type="DecisionTree" boostWeight="1.0000000000000000e+00" itree="31">
      <Node pos="s" depth="0" NCoef="0" IVar="2" Cut="1.0963051605224609e+02" cType="1" res="-3.3294517197646201e-04" rms="4.3355163931846619e-01" purity="5.0402224063873291e-01" nType="0">
        <Node pos="l" depth="1" NCoef="0" IVar="5" Cut="7.8388625383377075e-01" cType="1" res="-1.1229530721902847e-01" rms="3.9781221747398376e-01" purity="2.5149300694465637e-01" nType="0">
          <Node pos="l" depth="2" NCoef="0" IVar="-1" Cut="0.0000000000000000e+00" cType="1" res="-5.9273862279951572e-03" rms="4.3493163585662842e-01" purity="3.4403824806213379e-01" nType="-99"/>
          <Node pos="r" depth="2" NCoef="0" IVar="-1" Cut="0.0000000000000000e+00" cType="1" res="-1.8702225759625435e-02" rms="3.5890072584152222e-01" purity="1.7854073643684387e-01" nType="-99"/>
        </Node>
        <Node pos="r" depth="1" NCoef="0" IVar="2" Cut="1.4415721130371094e+02" cType="1" res="3.7679806351661682e-02" rms="4.3858164548873901e-01" purity="5.8975940942764282e-01" nType="0">
          <Node pos="l" depth="2" NCoef="0" IVar="-1" Cut="0.0000000000000000e+00" cType="1" res="7.1644019335508347e-03" rms="4.3145900964736938e-01" purity="6.3201147317886353e-01" nType="-99"/>
          <Node pos="r" depth="2" NCoef="0" IVar="-1" Cut="0.0000000000000000e+00" cType="1" res="-1.6096759587526321e-02" rms="4.4207894802093506e-01" purity="3.0179905891418457e-01" nType="-99"/>
        </Node>
      </Node>
    </BinaryTree>
    <BinaryTree type="DecisionTree" boostWeight="1.0000000000000000e+00" itree="32">
      <Node pos="s" depth="0" NCoef="0" IVar="1" Cut="1.2072409057617188e+02" cType="1" res="-8.3645433187484741e-03" rms="4.2964810132980347e-01" purity="4.8859938979148865e-01" nType="0">
        <Node pos="l" depth="1" NCoef="0" IVar="3" Cut="1.4215769958496094e+02" cType="1" res="-8.3399750292301178e-02" rms="4.2240989208221436e-01" purity="3.0187013745307922e-01" nType="0">
          <Node pos="l" depth="2" NCoef="0" IVar="-1" Cut="0.0000000000000000e+00" cType="1" res="-7.6026096940040588e-03" rms="4.2389884591102600e-01" purity="3.1505057215690613e-01" nType="-99"/>
          <Node pos="r" depth="2" NCoef="0" IVar="-1" Cut="0.0000000000000000e+00" cType="1" res="-3.1851693987846375e-02" rms="3.4169182181358337e-01" purity="1.4324660599231720e-01" nType="-99"/>
        </Node>
        <Node pos="r" depth="1" NCoef="0" IVar="5" Cut="1.5433193445205688e+00" cType="1" res="5.5588245391845703e-02" rms="4.2540016770362854e-01" purity="6.4774948358535767e-01" nType="0">
          <Node pos="l" depth="2" NCoef="0" IVar="-1" Cut="0.0000000000000000e+00" cType="1" res="1.0688764974474907e-02" rms="4.1102257370948792e-01" purity="7.0446830987930298e-01" nType="-99"/>
          <Node pos="r" depth="2" NCoef="0" IVar="-1" Cut="0.0000000000000000e+00" cType="1" res="-1.7495740205049515e-02" rms="4.3475756049156189e-01" purity="3.4215930104255676e-01" nType="-99"/>
        </Node>
      </Node>
    </BinaryTree>
    <BinaryTree type="DecisionTree" boostWeight="1.0000000000000000e+00" itree="33">
      <Node pos="s" depth="0" NCoef="0" IVar="2" Cut="1.0530742645263672e+02" cType="1" res="4.3268376030027866e-03" rms="4.2423728108406067e-01" purity="5.0536781549453735e-01" nType="0">
        <Node pos="l" depth="1" NCoef="0" IVar="4" Cut="5.4106280517578125e+02" cType="1" res="-1.2868741154670715e-01" rms="3.7322869896888733e-01" purity="1.9520530104637146e-01" nType="0">
          <Node pos="l" depth="2" NCoef="0" IVar="-1" Cut="0.0000000000000000e+00" cType="1" res="-1.0684696957468987e-02" rms="3.9167302846908569e-01" purity="2.2858545184135437e-01" nType="-99"/>
          <Node pos="r" depth="2" NCoef="0" IVar="-1" Cut="0.0000000000000000e+00" cType="1" res="-2.9750227928161621e-02" rms="2.6200661063194275e-01" purity="8.2824513316154480e-02" nType="-99"/>
        </Node>
        <Node pos="r" depth="1" NCoef="0" IVar="4" Cut="3.3433804321289062e+02" cType="1" res="3.9135836064815521e-02" rms="4.2986109852790833e-01" purity="5.8653545379638672e-01" nType="0">
          <Node pos="l" depth="2" NCoef="0" IVar="-1" Cut="0.0000000000000000e+00" cType="1" res="-1.4510015957057476e-02" rms="3.8337787985801697e-01" purity="1.8735392391681671e-01" nType="-99"/>
          <Node pos="r" depth="2" NCoef="0" IVar="-1" Cut="0.0000000000000000e+00" cType="1" res="8.6712148040533066e-03" rms="4.3149888515472412e-01" purity="6.8758863210678101e-01" nType="-99"/>
        </Node>
      </Node>
    </BinaryTree>
    <BinaryTree type="DecisionTree" boostWeight="1.0000000000000000e+00" itree="34">
      <Node pos="s" depth="0" NCoef="0" IVar="3" Cut="8.5553062438964844e+01" cType="1" res="2.8992875013500452e-03" rms="4.2677184939384460e-01" purity="5.0547945499420166e-01" nType="0">
        <Node pos="l" depth="1" NCoef="0" IVar="4" Cut="5.2434423828125000e+02" cType="1" res="-1.9971565902233124e-01" rms="3.9035242795944214e-01" purity="2.2021022439002991e-01" nType="0">
          <Node pos="l" depth="2" NCoef="0" IVar="-1" Cut="0.0000000000000000e+00" cType="1" res="-1.4197077602148056e-02" rms="4.1132628917694092e-01" purity="2.7657940983772278e-01" nType="-99"/>
          <Node pos="r" depth="2" NCoef="0" IVar="-1" Cut="0.0000000000000000e+00" cType="1" res="-3.6314759403467178e-02" rms="3.0510252714157104e-01" purity="1.1659944802522659e-01" nType="-99"/>
        </Node>
        <Node pos="r" depth="1" NCoef="0" IVar="1" Cut="8.9984786987304688e+01" cType="1" res="2.4879217147827148e-02" rms="4.2476576566696167e-01" purity="5.3642576932907104e-01" nType="0">
          <Node pos="l" depth="2" NCoef="0" IVar="-1" Cut="0.0000000000000000e+00" cType="1" res="-9.9036395549774170e-03" rms="4.0852373838424683e-01" purity="2.5324273109436035e-01" nType="-99"/>
          <Node pos="r" depth="2" NCoef="0" IVar="-1" Cut="0.0000000000000000e+00" cType="1" res="8.2758609205484390e-03" rms="4.2282316088676453e-01" purity="6.6645079851150513e-01" nType="-99"/>
        </Node>
      </Node>
    </BinaryTree>
    <BinaryTree type="DecisionTree" boostWeight="1.0000000000000000e+00" itree="35">
      <Node pos="s" depth="0" NCoef="0" IVar="2" Cut="1.1488640594482422e+02" cType="1" res="-5.6581263197585940e-04" rms="4.2842236161231995e-01" purity="4.9551069736480713e-01" nType="0">
        <Node pos="l" depth="1" NCoef="0" IVar="4" Cut="5.9402728271484375e+02" cType="1" res="-7.7296428382396698e-02" rms="4.1771215200424194e-01" purity="3.2501837611198425e-01" nType="0">
          <Node pos="l" depth="2" NCoef="0" IVar="-1" Cut="0.0000000000000000e+00" cType="1" res="-5.7202894240617752e-03" rms="4.2309269309043884e-01" purity="3.5055649280548096e-01" nType="-99"/>
          <Node pos="r" depth="2" NCoef="0" IVar="-1" Cut="0.0000000000000000e+00" cType="1" res="-2.5786975398659706e-02" rms="3.5286164283752441e-01" purity="1.9059056043624878e-01" nType="-99"/>
        </Node>
        <Node pos="r" depth="1" NCoef="0" IVar="2" Cut="1.3920974731445312e+02" cType="1" res="4.1166801005601883e-02" rms="4.2840492725372314e-01" purity="5.8823889493942261e-01" nType="0">
          <Node pos="l" depth="2" NCoef="0" IVar="-1" Cut="0.0000000000000000e+00" cType="1" res="1.0193543508648872e-02" rms="4.1031756997108459e-01" purity="6.5871816873550415e-01" nType="-99"/>
          <Node pos="r" depth="2" NCoef="0" IVar="-1" Cut="0.0000000000000000e+00" cType="1" res="-1.3098653405904770e-02" rms="4.4663414359092712e-01" purity="3.5915511846542358e-01" nType="-99"/>
        </Node>
      </Node>
    </BinaryTree>
    <BinaryTree type="DecisionTree" boostWeight="1.0000000000000000e+00" itree="36">
      <Node pos="s" depth="0" NCoef="0" IVar="2" Cut="1.4322566223144531e+02" cType="1" res="6.0842633247375488e-03" rms="4.2503324151039124e-01" purity="5.0750815868377686e-01" nType="0">
        <Node pos="l" depth="1" NCoef="0" IVar="4" Cut="3.0179782104492188e+02" cType="1" res="2.8816841542720795e-02" rms="4.2000606656074524e-01" purity="5.3676170110702515e-01" nType="0">
          <Node pos="l" depth="2" NCoef="0" IVar="-1" Cut="0.0000000000000000e+00" cType="1" res="-1.7738543450832367e-02" rms="3.1886890530586243e-01" purity="1.1981631815433502e-01" nType="-99"/>
          <Node pos="r" depth="2" NCoef="0" IVar="-1" Cut="0.0000000000000000e+00" cType="1" res="6.2505984678864479e-03" rms="4.2893451452255249e-01" purity="6.0753059387207031e-01" nType="-99"/>
        </Node>
        <Node pos="r" depth="1" NCoef="0" IVar="3" Cut="1.0905063629150391e+02" cType="1" res="-1.7411057651042938e-01" rms="4.2161703109741211e-01" purity="2.7562376856803894e-01" nType="0">
          <Node pos="l" depth="2" NCoef="0" IVar="-1" Cut="0.0000000000000000e+00" cType="1" res="-3.3571768552064896e-02" rms="3.4626159071922302e-01" purity="1.4577965438365936e-01" nType="-99"/>
          <Node pos="r" depth="2" NCoef="0" IVar="-1" Cut="0.0000000000000000e+00" cType="1" res="-1.3116464018821716e-02" rms="4.3615913391113281e-01" purity="3.2829332351684570e-01" nType="-99"/>
        </Node>
      </Node>
    </BinaryTree>
    <BinaryTree type="DecisionTree" boostWeight="1.0000000000000000e+00" itree="37">
      <Node pos="s" depth="0" NCoef="0" IVar="5" Cut="1.9969934225082397e+00" cType="1" res="-5.8000176213681698e-03" rms="4.3235421180725098e-01" purity="4.9980476498603821e-01" nType="0">
        <Node pos="l" depth="1" NCoef="0" IVar="2" Cut="1.4117231750488281e+02" cType="1" res="1.6391826793551445e-02" rms="4.3117323517799377e-01" purity="5.3738391399383545e-01" nType="0">
          <Node pos="l" depth="2" NCoef="0" IVar="-1" Cut="0.0000000000000000e+00" cType="1" res="4.3379561975598335e-03" rms="4.2534363269805908e-01" purity="5.6679821014404297e-01" nType="-99"/>
          <Node pos="r" depth="2" NCoef="0" IVar="-1" Cut="0.0000000000000000e+00" cType="1" res="-1.3284935615956783e-02" rms="4.4286689162254333e-01" purity="3.5042548179626465e-01" nType="-99"/>
        </Node>
        <Node pos="r" depth="1" NCoef="0" IVar="1" Cut="1.4043565368652344e+02" cType="1" res="-1.5248696506023407e-01" rms="4.1097271442413330e-01" purity="2.5140860676765442e-01" nType="0">
          <Node pos="l" depth="2" NCoef="0" IVar="-1" Cut="0.0000000000000000e+00" cType="1" res="-1.0414387099444866e-02" rms="4.1995295882225037e-01" purity="2.9247879981994629e-01" nType="-99"/>
          <Node pos="r" depth="2" NCoef="0" IVar="-1" Cut="0.0000000000000000e+00" cType="1" res="-3.5772211849689484e-02" rms="3.2723924517631531e-01" purity="1.3425523042678833e-01" nType="-99"/>
        </Node>
      </Node>
    </BinaryTree>
    <BinaryTree type="DecisionTree" boostWeight="1.0000000000000000e+00" itree="38">
      <Node pos="s" depth="0" NCoef="0" IVar="3" Cut="9.6340667724609375e+01" cType="1" res="-6.0893166810274124e-03" rms="4.2419531941413879e-01" purity="4.9839544296264648e-01" nType="0">
        <Node pos="l" depth="1" NCoef="0" IVar="4" Cut="6.2215039062500000e+02" cType="1" res="-1.4270055294036865e-01" rms="4.0569680929183960e-01" purity="2.6212090253829956e-01" nType="0">
          <Node pos="l" depth="2" NCoef="0" IVar="-1" Cut="0.0000000000000000e+00" cType="1" res="-1.1579711921513081e-02" rms="4.1740038990974426e-01" purity="3.0134692788124084e-01" nType="-99"/>
          <Node pos="r" depth="2" NCoef="0" IVar="-1" Cut="0.0000000000000000e+00" cType="1" res="-3.5712949931621552e-02" rms="2.9030105471611023e-01" purity="9.3488723039627075e-02" nType="-99"/>
        </Node>
        <Node pos="r" depth="1" NCoef="0" IVar="3" Cut="1.3713104248046875e+02" cType="1" res="2.7444195002317429e-02" rms="4.2190575599670410e-01" purity="5.5639296770095825e-01" nType="0">
          <Node pos="l" depth="2" NCoef="0" IVar="-1" Cut="0.0000000000000000e+00" cType="1" res="6.2754261307418346e-03" rms="4.1360682249069214e-01" purity="5.8644384145736694e-01" nType="-99"/>
          <Node pos="r" depth="2" NCoef="0" IVar="-1" Cut="0.0000000000000000e+00" cType="1" res="-1.7498681321740150e-02" rms="4.3083316087722778e-01" purity="3.5467869043350220e-01" nType="-99"/>
        </Node>
      </Node>
    </BinaryTree>
    <BinaryTree type="DecisionTree" boostWeight="1.0000000000000000e+00" itree="39">
      <Node pos="s" depth="0" NCoef="0" IVar="2" Cut="1.4517977905273438e+02" cType="1" res="-3.2111029140651226e-03" rms="4.2544543743133545e-01" purity="5.0184285640716553e-01" nType="0">
        <Node pos="l" depth="1" NCoef="0" IVar="2" Cut="1.1526718139648438e+02" cType="1" res="1.4489179477095604e-02" rms="4.2253655195236206e-01" purity="5.2699160575866699e-01" nType="0">
          <Node pos="l" depth="2" NCoef="0" IVar="-1" Cut="0.0000000000000000e+00" cType="1" res="-7.7908257953822613e-03" rms="4.2068675160408020e-01" purity="3.3878600597381592e-01" nType="-99"/>
          <Node pos="r" depth="2" NCoef="0" IVar="-1" Cut="0.0000000000000000e+00" cType="1" res="7.6110572554171085e-03" rms="4.1534882783889771e-01" purity="6.4863955974578857e-01" nType="-99"/>
        </Node>
        <Node pos="r" depth="1" NCoef="0" IVar="3" Cut="1.0705056762695312e+02" cType="1" res="-1.8602183461189270e-01" rms="4.1209760308265686e-01" purity="2.4210304021835327e-01" nType="0">
          <Node pos="l" depth="2" NCoef="0" IVar="-1" Cut="0.0000000000000000e+00" cType="1" res="-3.1834702938795090e-02" rms="3.2494935393333435e-01" purity="1.3216908276081085e-01" nType="-99"/>
          <Node pos="r" depth="2" NCoef="0" IVar="-1" Cut="0.0000000000000000e+00" cType="1" res="-1.5898140147328377e-02" rms="4.3434897065162659e-01" purity="2.8591033816337585e-01" nType="-99"/>
        </Node>
      </Node>
    </BinaryTree>
    <BinaryTree type="DecisionTree" boostWeight="1.0000000000000000e+00" itree="40">
      <Node pos="s" depth="0" NCoef="0" IVar="2" Cut="1.0814032745361328e+02" cType="1" res="-6.9028255529701710e-03" rms="4.1958865523338318e-01" purity="4.9301362037658691e-01" nType="0">
        <Node pos="l" depth="1" NCoef="0" IVar="4" Cut="5.6715185546875000e+02" cType="1" res="-1.1119194328784943e-01" rms="3.8569805026054382e-01" purity="2.2305981814861298e-01" nType="0">
          <Node pos="l" depth="2" NCoef="0" IVar="-1" Cut="0.0000000000000000e+00" cType="1" res="-8.8701313361525536e-03" rms="4.0806928277015686e-01" purity="2.6272606849670410e-01" nType="-99"/>
          <Node pos="r" depth="2" NCoef="0" IVar="-1" Cut="0.0000000000000000e+00" cType="1" res="-2.7748152613639832e-02" rms="2.6721653342247009e-01" purity="9.3258582055568695e-02" nType="-99"/>
        </Node>
        <Node pos="r" depth="1" NCoef="0" IVar="2" Cut="1.4606163024902344e+02" cType="1" res="2.5167943909764290e-02" rms="4.2435142397880554e-01" purity="5.7602930068969727e-01" nType="0">
          <Node pos="l" depth="2" NCoef="0" IVar="-1" Cut="0.0000000000000000e+00" cType="1" res="6.0586617328226566e-03" rms="4.2081910371780396e-01" purity="6.2319248914718628e-01" nType="-99"/>
          <Node pos="r" depth="2" NCoef="0" IVar="-1" Cut="0.0000000000000000e+00" cType="1" res="-2.1615222096443176e-02" rms="3.8738203048706055e-01" purity="2.1449729800224304e-01" nType="-99"/>
        </Node>
      </Node>
    </BinaryTree>
    <BinaryTree type="DecisionTree" boostWeight="1.0000000000000000e+00" itree="41">
      <Node pos="s" depth="0" NCoef="0" IVar="3" Cut="9.4999763488769531e+01" cType="1" res="9.6929108258336782e-04" rms="4.2408144474029541e-01" purity="5.0138264894485474e-01" nType="0">
        <Node pos="l" depth="1" NCoef="0" IVar="1" Cut="1.8193132019042969e+02" cType="1" res="-1.4192533493041992e-01" rms="4.0347895026206970e-01" purity="2.5449818372726440e-01" nType="0">
          <Node pos="l" depth="2" NCoef="0" IVar="-1" Cut="0.0000000000000000e+00" cType="1" res="-1.0579121299088001e-02" rms="4.1061979532241821e-01" purity="2.8712970018386841e-01" nType="-99"/>
          <Node pos="r" depth="2" NCoef="0" IVar="-1" Cut="0.0000000000000000e+00" cType="1" res="-2.8038911521434784e-02" rms="3.6246657371520996e-01" purity="1.8303513526916504e-01" nType="-99"/>
        </Node>
        <Node pos="r" depth="1" NCoef="0" IVar="1" Cut="1.2007926177978516e+02" cType="1" res="3.1433485448360443e-02" rms="4.2213591933250427e-01" purity="5.5401676893234253e-01" nType="0">
          <Node pos="l" depth="2" NCoef="0" IVar="-1" Cut="0.0000000000000000e+00" cType="1" res="-5.1787835545837879e-03" rms="4.3461343646049500e-01" purity="3.5120278596878052e-01" nType="-99"/>
          <Node pos="r" depth="2" NCoef="0" IVar="-1" Cut="0.0000000000000000e+00" cType="1" res="1.1070212349295616e-02" rms="3.9980182051658630e-01" purity="7.2685343027114868e-01" nType="-99"/>
        </Node>
      </Node>
    </BinaryTree>
    <BinaryTree type="DecisionTree" boostWeight="1.0000000000000000e+00" itree="42">
      <Node pos="s" depth="0" NCoef="0" IVar="3" Cut="8.7332015991210938e+01" cType="1" res="1.0875984095036983e-02" rms="4.2278715968132019e-01" purity="5.1390129327774048e-01" nType="0">
        <Node pos="l" depth="1" NCoef="0" IVar="4" Cut="5.5640039062500000e+02" cType="1" res="-1.6808643937110901e-01" rms="3.6564800143241882e-01" purity="1.9902141392230988e-01" nType="0">
          <Node pos="l" depth="2" NCoef="0" IVar="-1" Cut="0.0000000000000000e+00" cType="1" res="-1.5108653344213963e-02" rms="3.7917566299438477e-01" purity="2.3594115674495697e-01" nType="-99"/>
          <Node pos="r" depth="2" NCoef="0" IVar="-1" Cut="0.0000000000000000e+00" cType="1" res="-3.1412377953529358e-02" rms="3.0668103694915771e-01" purity="1.0833100974559784e-01" nType="-99"/>
        </Node>
        <Node pos="r" depth="1" NCoef="0" IVar="2" Cut="1.4780412292480469e+02" cType="1" res="3.2054632902145386e-02" rms="4.2407733201980591e-01" purity="5.5116456747055054e-01" nType="0">
          <Node pos="l" depth="2" NCoef="0" IVar="-1" Cut="0.0000000000000000e+00" cType="1" res="5.6037753820419312e-03" rms="4.2059457302093506e-01" purity="5.7650059461593628e-01" nType="-99"/>
          <Node pos="r" depth="2" NCoef="0" IVar="-1" Cut="0.0000000000000000e+00" cType="1" res="-1.8378285691142082e-02" rms="4.1637468338012695e-01" purity="2.4917593598365784e-01" nType="-99"/>
        </Node>
      </Node>
    </BinaryTree>
    <BinaryTree type="DecisionTree" boostWeight="1.0000000000000000e+00" itree="43">
      <Node pos="s" depth="0" NCoef="0" IVar="5" Cut="1.7096031904220581e+00" cType="1" res="-1.0918174870312214e-02" rms="4.1947451233863831e-01" purity="4.8810297250747681e-01" nType="0">
        <Node pos="l" depth="1" NCoef="0" IVar="4" Cut="3.0208053588867188e+02" cType="1" res="1.9383091479539871e-02" rms="4.1635522246360779e-01" purity="5.3903424739837646e-01" nType="0">
          <Node pos="l" depth="2" NCoef="0" IVar="-1" Cut="0.0000000000000000e+00" cType="1" res="-1.8945999443531036e-02" rms="3.0960857868194580e-01" purity="1.0806232690811157e-01" nType="-99"/>
          <Node pos="r" depth="2" NCoef="0" IVar="-1" Cut="0.0000000000000000e+00" cType="1" res="5.4677044972777367e-03" rms="4.2685142159461975e-01" purity="6.1819660663604736e-01" nType="-99"/>
        </Node>
        <Node pos="r" depth="1" NCoef="0" IVar="2" Cut="1.3615003967285156e+02" cType="1" res="-1.3190062344074249e-01" rms="4.0995827317237854e-01" purity="2.8475204110145569e-01" nType="0">
          <Node pos="l" depth="2" NCoef="0" IVar="-1" Cut="0.0000000000000000e+00" cType="1" res="-9.9808657541871071e-03" rms="4.1611728072166443e-01" purity="3.2719391584396362e-01" nType="-99"/>
          <Node pos="r" depth="2" NCoef="0" IVar="-1" Cut="0.0000000000000000e+00" cType="1" res="-3.1640458852052689e-02" rms="3.4338641166687012e-01" purity="1.3509230315685272e-01" nType="-99"/>
        </Node>
      </Node>
    </BinaryTree>
    <BinaryTree type="DecisionTree" boostWeight="1.0000000000000000e+00" itree="44">
      <Node pos="s" depth="0" NCoef="0" IVar="2" Cut="1.0355400848388672e+02" cType="1" res="-1.9448240054771304e-03" rms="4.2347449064254761e-01" purity="4.9907237291336060e-01" nType="0">
        <Node pos="l" depth="1" NCoef="0" IVar="4" Cut="5.5721697998046875e+02" cType="1" res="-1.1516660451889038e-01" rms="3.6817550659179688e-01" purity="1.8055985867977142e-01" nType="0">
          <Node pos="l" depth="2" NCoef="0" IVar="-1" Cut="0.0000000000000000e+00" cType="1" res="-1.0518219321966171e-02" rms="3.9307847619056702e-01" purity="2.1393904089927673e-01" nType="-99"/>
          <Node pos="r" depth="2" NCoef="0" IVar="-1" Cut="0.0000000000000000e+00" cType="1" res="-2.8319707140326500e-02" rms="2.3333738744258881e-01" purity="6.4618311822414398e-02" nType="-99"/>
        </Node>
        <Node pos="r" depth="1" NCoef="0" IVar="3" Cut="1.3978945922851562e+02" cType="1" res="2.3189604282379150e-02" rms="4.3077999353408813e-01" purity="5.6977987289428711e-01" nType="0">
          <Node pos="l" depth="2" NCoef="0" IVar="-1" Cut="0.0000000000000000e+00" cType="1" res="4.9088420346379280e-03" rms="4.2389532923698425e-01" purity="5.9093689918518066e-01" nType="-99"/>
          <Node pos="r" depth="2" NCoef="0" IVar="-1" Cut="0.0000000000000000e+00" cType="1" res="-2.0420737564563751e-02" rms="4.4755041599273682e-01" purity="3.4873533248901367e-01" nType="-99"/>
        </Node>
      </Node>
    </BinaryTree>
    <BinaryTree type="DecisionTree" boostWeight="1.0000000000000000e+00" itree="45">
      <Node pos="s" depth="0" NCoef="0" IVar="3" Cut="1.4225831604003906e+02" cType="1" res="6.1659812927246094e-03" rms="4.2033818364143372e-01" purity="5.1109522581100464e-01" nType="0">
        <Node pos="l" depth="1" NCoef="0" IVar="5" Cut="1.4667562246322632e+00" cType="1" res="2.0452594384551048e-02" rms="4.1660782694816589e-01" purity="5.2570366859436035e-01" nType="0">
          <Node pos="l" depth="2" NCoef="0" IVar="-1" Cut="0.0000000000000000e+00" cType="1" res="6.2709646299481392e-03" rms="4.0846273303031921e-01" purity="5.8886682987213135e-01" nType="-99"/>
          <Node pos="r" depth="2" NCoef="0" IVar="-1" Cut="0.0000000000000000e+00" cType="1" res="-9.1183474287390709e-03" rms="4.2500963807106018e-01" purity="3.3396482467651367e-01" nType="-99"/>
        </Node>
        <Node pos="r" depth="1" NCoef="0" IVar="2" Cut="1.2775946044921875e+02" cType="1" res="-2.1952117979526520e-01" rms="4.1454255580902100e-01" purity="2.8032398223876953e-01" nType="0">
          <Node pos="l" depth="2" NCoef="0" IVar="-1" Cut="0.0000000000000000e+00" cType="1" res="-2.8937855735421181e-02" rms="3.8841366767883301e-01" purity="2.3003688454627991e-01" nType="-99"/>
          <Node pos="r" depth="2" NCoef="0" IVar="-1" Cut="0.0000000000000000e+00" cType="1" res="-1.8490927293896675e-02" rms="4.4168537855148315e-01" purity="3.4812340140342712e-01" nType="-99"/>
        </Node>
      </Node>
    </BinaryTree>
    <BinaryTree type="DecisionTree" boostWeight="1.0000000000000000e+00" itree="46">
      <Node pos="s" depth="0" NCoef="0" IVar="0" Cut="1.4719171142578125e+02" cType="1" res="-6.0657262802124023e-03" rms="4.1512840986251831e-01" purity="4.9400308728218079e-01" nType="0">
        <Node pos="l" depth="1" NCoef="0" IVar="5" Cut="8.3540368080139160e-01" cType="1" res="-1.2058480829000473e-01" rms="3.9393410086631775e-01" purity="2.3557525873184204e-01" nType="0">
          <Node pos="l" depth="2" NCoef="0" IVar="-1" Cut="0.0000000000000000e+00" cType="1" res="-8.8365962728857994e-03" rms="3.8949304819107056e-01" purity="2.6637032628059387e-01" nType="-99"/>
          <Node pos="r" depth="2" NCoef="0" IVar="-1" Cut="0.0000000000000000e+00" cType="1" res="-1.8091257661581039e-02" rms="3.9347118139266968e-01" purity="2.1480996906757355e-01" nType="-99"/>
        </Node>
        <Node pos="r" depth="1" NCoef="0" IVar="2" Cut="1.1009102630615234e+02" cType="1" res="2.6232551783323288e-02" rms="4.1524189710617065e-01" purity="5.6688857078552246e-01" nType="0">
          <Node pos="l" depth="2" NCoef="0" IVar="-1" Cut="0.0000000000000000e+00" cType="1" res="-1.0698447003960609e-02" rms="4.0313157439231873e-01" purity="2.6913666725158691e-01" nType="-99"/>
          <Node pos="r" depth="2" NCoef="0" IVar="-1" Cut="0.0000000000000000e+00" cType="1" res="8.2286093384027481e-03" rms="4.1100084781646729e-01" purity="6.8415927886962891e-01" nType="-99"/>
        </Node>
      </Node>
    </BinaryTree>
    <BinaryTree type="DecisionTree" boostWeight="1.0000000000000000e+00" itree="47">
      <Node pos="s" depth="0" NCoef="0" IVar="3" Cut="9.3671211242675781e+01" cType="1" res="7.8985132277011871e-03" rms="4.2265453934669495e-01" purity="5.1279228925704956e-01" nType="0">
        <Node pos="l" depth="1" NCoef="0" IVar="4" Cut="4.9742135620117188e+02" cType="1" res="-1.0255362093448639e-01" rms="4.0410226583480835e-01" purity="2.7106428146362305e-01" nType="0">
          <Node pos="l" depth="2" NCoef="0" IVar="-1" Cut="0.0000000000000000e+00" cType="1" res="-5.6428052484989166e-03" rms="4.1945493221282959e-01" purity="3.2382863759994507e-01" nType="-99"/>
          <Node pos="r" depth="2" NCoef="0" IVar="-1" Cut="0.0000000000000000e+00" cType="1" res="-2.5990342721343040e-02" rms="3.4110110998153687e-01" purity="1.5969575941562653e-01" nType="-99"/>
        </Node>
        <Node pos="r" depth="1" NCoef="0" IVar="4" Cut="3.8154299926757812e+02" cType="1" res="2.8948469087481499e-02" rms="4.2283791303634644e-01" purity="5.5886077880859375e-01" nType="0">
          <Node pos="l" depth="2" NCoef="0" IVar="-1" Cut="0.0000000000000000e+00" cType="1" res="-5.5228611454367638e-03" rms="4.2325583100318909e-01" purity="3.2223868370056152e-01" nType="-99"/>
          <Node pos="r" depth="2" NCoef="0" IVar="-1" Cut="0.0000000000000000e+00" cType="1" res="7.6826917938888073e-03" rms="4.1751548647880554e-01" purity="6.7914766073226929e-01" nType="-99"/>
        </Node>
      </Node>
    </BinaryTree>
    <BinaryTree type="DecisionTree" boostWeight="1.0000000000000000e+00" itree="48">
      <Node pos="s" depth="0" NCoef="0" IVar="3" Cut="8.5541526794433594e+01" cType="1" res="-4.6004878822714090e-04" rms="4.2059853672981262e-01" purity="5.0640857219696045e-01" nType="0">
        <Node pos="l" depth="1" NCoef="0" IVar="4" Cut="4.1216955566406250e+02" cType="1" res="-1.7637236416339874e-01" rms="3.7409916520118713e-01" purity="1.9427704811096191e-01" nType="0">
          <Node pos="l" depth="2" NCoef="0" IVar="-1" Cut="0.0000000000000000e+00" cType="1" res="-1.3647302985191345e-02" rms="3.7642127275466919e-01" purity="2.1101948618888855e-01" nType="-99"/>
          <Node pos="r" depth="2" NCoef="0" IVar="-1" Cut="0.0000000000000000e+00" cType="1" res="-2.6504626497626305e-02" rms="3.6181834340095520e-01" purity="1.7948855459690094e-01" nType="-99"/>
        </Node>
        <Node pos="r" depth="1" NCoef="0" IVar="2" Cut="1.4784643554687500e+02" cType="1" res="1.6888394951820374e-02" rms="4.2094495892524719e-01" purity="5.3719085454940796e-01" nType="0">
          <Node pos="l" depth="2" NCoef="0" IVar="-1" Cut="0.0000000000000000e+00" cType="1" res="3.8345409557223320e-03" rms="4.1911107301712036e-01" purity="5.6251031160354614e-01" nType="-99"/>
          <Node pos="r" depth="2" NCoef="0" IVar="-1" Cut="0.0000000000000000e+00" cType="1" res="-2.0260369405150414e-02" rms="3.9397829771041870e-01" purity="2.2298818826675415e-01" nType="-99"/>
        </Node>
      </Node>
    </BinaryTree>
    <BinaryTree type="DecisionTree" boostWeight="1.0000000000000000e+00" itree="49">
      <Node pos="s" depth="0" NCoef="0" IVar="3" Cut="9.8369560241699219e+01" cType="1" res="5.5371322669088840e-03" rms="4.1773170232772827e-01" purity="5.0611543655395508e-01" nType="0">
        <Node pos="l" depth="1" NCoef="0" IVar="4" Cut="6.1201593017578125e+02" cType="1" res="-9.1696195304393768e-02" rms="4.0062940120697021e-01" purity="2.9339754581451416e-01" nType="0">
          <Node pos="l" depth="2" NCoef="0" IVar="-1" Cut="0.0000000000000000e+00" cType="1" res="-6.1924038454890251e-03" rms="4.0968528389930725e-01" purity="3.3484163880348206e-01" nType="-99"/>
          <Node pos="r" depth="2" NCoef="0" IVar="-1" Cut="0.0000000000000000e+00" cType="1" res="-3.1406424939632416e-02" rms="3.0144563317298889e-01" purity="1.1118111759424210e-01" nType="-99"/>
        </Node>
        <Node pos="r" depth="1" NCoef="0" IVar="3" Cut="1.3607989501953125e+02" cType="1" res="3.4393671900033951e-02" rms="4.1834780573844910e-01" purity="5.6924504041671753e-01" nType="0">
          <Node pos="l" depth="2" NCoef="0" IVar="-1" Cut="0.0000000000000000e+00" cType="1" res="7.1333744563162327e-03" rms="4.0900513529777527e-01" purity="6.0232305526733398e-01" nType="-99"/>
          <Node pos="r" depth="2" NCoef="0" IVar="-1" Cut="0.0000000000000000e+00" cType="1" res="-1.3050791807472706e-02" rms="4.3985050916671753e-01" purity="3.8095569610595703e-01" nType="-99"/>
        </Node>
      </Node>
    </BinaryTree>
    <BinaryTree type="DecisionTree" boostWeight="1.0000000000000000e+00" itree="50">
      <Node pos="s" depth="0" NCoef="0" IVar="2" Cut="8.9943672180175781e+01" cType="1" res="-1.3914229348301888e-03" rms="4.1687184572219849e-01" purity="4.9806731939315796e-01" nType="0">
        <Node pos="l" depth="1" NCoef="0" IVar="4" Cut="4.2438571166992188e+02" cType="1" res="-1.7769698798656464e-01" rms="2.9832381010055542e-01" purity="9.8227500915527344e-02" nType="0">
          <Node pos="l" depth="2" NCoef="0" IVar="-1" Cut="0.0000000000000000e+00" cType="1" res="-1.8514297902584076e-02" rms="3.2336238026618958e-01" purity="1.2058852612972260e-01" nType="-99"/>
          <Node pos="r" depth="2" NCoef="0" IVar="-1" Cut="0.0000000000000000e+00" cType="1" res="-2.9294941574335098e-02" rms="2.4740907549858093e-01" purity="6.7830659449100494e-02" nType="-99"/>
        </Node>
        <Node pos="r" depth="1" NCoef="0" IVar="4" Cut="3.4962115478515625e+02" cType="1" res="1.1455131694674492e-02" rms="4.2134314775466919e-01" purity="5.2720171213150024e-01" nType="0">
          <Node pos="l" depth="2" NCoef="0" IVar="-1" Cut="0.0000000000000000e+00" cType="1" res="-8.7474510073661804e-03" rms="4.0477380156517029e-01" purity="2.2620297968387604e-01" nType="-99"/>
          <Node pos="r" depth="2" NCoef="0" IVar="-1" Cut="0.0000000000000000e+00" cType="1" res="4.6458514407277107e-03" rms="4.2345070838928223e-01" purity="6.3642317056655884e-01" nType="-99"/>
        </Node>
      </Node>
    </BinaryTree>
    <BinaryTree type="DecisionTree" boostWeight="1.0000000000000000e+00" itree="51">
      <Node pos="s" depth="0" NCoef="0" IVar="5" Cut="2.0014467239379883e+00" cType="1" res="6.6593182273209095e-03" rms="4.1645476222038269e-01" purity="5.1611781120300293e-01" nType="0">
        <Node pos="l" depth="1" NCoef="0" IVar="4" Cut="3.5977044677734375e+02" cType="1" res="2.7103403583168983e-02" rms="4.1476559638977051e-01" purity="5.5625045299530029e-01" nType="0">
          <Node pos="l" depth="2" NCoef="0" IVar="-1" Cut="0.0000000000000000e+00" cType="1" res="-6.9435834884643555e-03" rms="4.0803927183151245e-01" purity="2.6198646426200867e-01" nType="-99"/>
          <Node pos="r" depth="2" NCoef="0" IVar="-1" Cut="0.0000000000000000e+00" cType="1" res="7.0251561701297760e-03" rms="4.1277393698692322e-01" purity="6.7541790008544922e-01" nType="-99"/>
        </Node>
        <Node pos="r" depth="1" NCoef="0" IVar="4" Cut="5.3040869140625000e+02" cType="1" res="-1.3400153815746307e-01" rms="4.0054178237915039e-01" purity="2.3999497294425964e-01" nType="0">
          <Node pos="l" depth="2" NCoef="0" IVar="-1" Cut="0.0000000000000000e+00" cType="1" res="-4.6020341105759144e-03" rms="4.2526286840438843e-01" purity="3.0762228369712830e-01" nType="-99"/>
          <Node pos="r" depth="2" NCoef="0" IVar="-1" Cut="0.0000000000000000e+00" cType="1" res="-2.9467392712831497e-02" rms="3.2848423719406128e-01" purity="1.5384620428085327e-01" nType="-99"/>
        </Node>
      </Node>
    </BinaryTree>
    <BinaryTree type="DecisionTree" boostWeight="1.0000000000000000e+00" itree="52">
      <Node pos="s" depth="0" NCoef="0" IVar="5" Cut="1.4503757953643799e+00" cType="1" res="-4.9937996082007885e-03" rms="4.1449365019798279e-01" purity="4.9418973922729492e-01" nType="0">
        <Node pos="l" depth="1" NCoef="0" IVar="4" Cut="3.2390603637695312e+02" cType="1" res="2.6802362874150276e-02" rms="4.1060820221900940e-01" purity="5.5909574031829834e-01" nType="0">
          <Node pos="l" depth="2" NCoef="0" IVar="-1" Cut="0.0000000000000000e+00" cType="1" res="-9.5449415966868401e-03" rms="3.8681191205978394e-01" purity="1.8711952865123749e-01" nType="-99"/>
          <Node pos="r" depth="2" NCoef="0" IVar="-1" Cut="0.0000000000000000e+00" cType="1" res="6.5607046708464622e-03" rms="4.1299653053283691e-01" purity="6.7157232761383057e-01" nType="-99"/>
        </Node>
        <Node pos="r" depth="1" NCoef="0" IVar="4" Cut="7.2090106201171875e+02" cType="1" res="-9.6183270215988159e-02" rms="4.1204884648323059e-01" purity="3.0804324150085449e-01" nType="0">
          <Node pos="l" depth="2" NCoef="0" IVar="-1" Cut="0.0000000000000000e+00" cType="1" res="-6.7356810905039310e-03" rms="4.2273792624473572e-01" purity="3.4800535440444946e-01" nType="-99"/>
          <Node pos="r" depth="2" NCoef="0" IVar="-1" Cut="0.0000000000000000e+00" cType="1" res="-3.2924801111221313e-02" rms="3.0012291669845581e-01" purity="1.2324805557727814e-01" nType="-99"/>
        </Node>
      </Node>
    </BinaryTree>
    <BinaryTree type="DecisionTree" boostWeight="1.0000000000000000e+00" itree="53">
      <Node pos="s" depth="0" NCoef="0" IVar="3" Cut="9.5336204528808594e+01" cType="1" res="-7.1471994742751122e-03" rms="4.1472005844116211e-01" purity="4.8642435669898987e-01" nType="0">
        <Node pos="l" depth="1" NCoef="0" IVar="4" Cut="4.7814520263671875e+02" cType="1" res="-1.2367293983697891e-01" rms="3.8837537169456482e-01" purity="2.2973701357841492e-01" nType="0">
          <Node pos="l" depth="2" NCoef="0" IVar="-1" Cut="0.0000000000000000e+00" cType="1" res="-8.8173560798168182e-03" rms="3.9681971073150635e-01" purity="2.6284199953079224e-01" nType="-99"/>
          <Node pos="r" depth="2" NCoef="0" IVar="-1" Cut="0.0000000000000000e+00" cType="1" res="-2.4565929546952248e-02" rms="3.5763365030288696e-01" purity="1.7658881843090057e-01" nType="-99"/>
        </Node>
        <Node pos="r" depth="1" NCoef="0" IVar="2" Cut="8.9907028198242188e+01" cType="1" res="1.9435802474617958e-02" rms="4.1595080494880676e-01" purity="5.4498237371444702e-01" nType="0">
          <Node pos="l" depth="2" NCoef="0" IVar="-1" Cut="0.0000000000000000e+00" cType="1" res="-2.4164656177163124e-02" rms="3.0830940604209900e-01" purity="1.0626879334449768e-01" nType="-99"/>
          <Node pos="r" depth="2" NCoef="0" IVar="-1" Cut="0.0000000000000000e+00" cType="1" res="3.8453482557088137e-03" rms="4.1806936264038086e-01" purity="5.7134652137756348e-01" nType="-99"/>
        </Node>
      </Node>
    </BinaryTree>
    <BinaryTree type="DecisionTree" boostWeight="1.0000000000000000e+00" itree="54">
      <Node pos="s" depth="0" NCoef="0" IVar="3" Cut="8.1590736389160156e+01" cType="1" res="-4.7016921453177929e-03" rms="4.1798445582389832e-01" purity="5.0296062231063843e-01" nType="0">
        <Node pos="l" depth="1" NCoef="0" IVar="2" Cut="1.1229434967041016e+02" cType="1" res="-1.9601505994796753e-01" rms="3.6313369870185852e-01" purity="1.6721194982528687e-01" nType="0">
          <Node pos="l" depth="2" NCoef="0" IVar="-1" Cut="0.0000000000000000e+00" cType="1" res="-1.5789719298481941e-02" rms="3.4600558876991272e-01" purity="1.6347005963325500e-01" nType="-99"/>
          <Node pos="r" depth="2" NCoef="0" IVar="-1" Cut="0.0000000000000000e+00" cType="1" res="-3.0111653730273247e-02" rms="3.6274474859237671e-01" purity="1.7127247154712677e-01" nType="-99"/>
        </Node>
        <Node pos="r" depth="1" NCoef="0" IVar="2" Cut="1.1085172271728516e+02" cType="1" res="6.2555307522416115e-03" rms="4.1826853156089783e-01" purity="5.2219015359878540e-01" nType="0">
          <Node pos="l" depth="2" NCoef="0" IVar="-1" Cut="0.0000000000000000e+00" cType="1" res="-8.9641520753502846e-03" rms="4.0646764636039734e-01" purity="2.8097382187843323e-01" nType="-99"/>
          <Node pos="r" depth="2" NCoef="0" IVar="-1" Cut="0.0000000000000000e+00" cType="1" res="3.8804984651505947e-03" rms="4.1880521178245544e-01" purity="6.0283195972442627e-01" nType="-99"/>
        </Node>
      </Node>
    </BinaryTree>
    <BinaryTree type="DecisionTree" boostWeight="1.0000000000000000e+00" itree="55">
      <Node pos="s" depth="0" NCoef="0" IVar="3" Cut="1.3818322753906250e+02" cType="1" res="6.4354594796895981e-03" rms="4.1390076279640198e-01" purity="5.1156711578369141e-01" nType="0">
        <Node pos="l" depth="1" NCoef="0" IVar="3" Cut="1.0602365112304688e+02" cType="1" res="2.2977411746978760e-02" rms="4.0888833999633789e-01" purity="5.3013980388641357e-01" nType="0">
          <Node pos="l" depth="2" NCoef="0" IVar="-1" Cut="0.0000000000000000e+00" cType="1" res="-5.9811817482113838e-03" rms="4.1115513443946838e-01" purity="3.6645632982254028e-01" nType="-99"/>
          <Node pos="r" depth="2" NCoef="0" IVar="-1" Cut="0.0000000000000000e+00" cType="1" res="7.5621912255883217e-03" rms="4.0211179852485657e-01" purity="6.2001216411590576e-01" nType="-99"/>
        </Node>
        <Node pos="r" depth="1" NCoef="0" IVar="3" Cut="1.4243887329101562e+02" cType="1" res="-1.4985048770904541e-01" rms="4.2809778451919556e-01" purity="3.3609539270401001e-01" nType="0">
          <Node pos="l" depth="2" NCoef="0" IVar="-1" Cut="0.0000000000000000e+00" cType="1" res="-8.4153562784194946e-03" rms="4.2580398917198181e-01" purity="4.1234725713729858e-01" nType="-99"/>
          <Node pos="r" depth="2" NCoef="0" IVar="-1" Cut="0.0000000000000000e+00" cType="1" res="-2.2950399667024612e-02" rms="4.2148450016975403e-01" purity="2.8587439656257629e-01" nType="-99"/>
        </Node>
      </Node>
    </BinaryTree>
    <BinaryTree type="DecisionTree" boostWeight="1.0000000000000000e+00" itree="56">
      <Node pos="s" depth="0" NCoef="0" IVar="3" Cut="1.0245311737060547e+02" cType="1" res="1.1639881413429976e-03" rms="4.1617879271507263e-01" purity="5.0541329383850098e-01" nType="0">
        <Node pos="l" depth="1" NCoef="0" IVar="4" Cut="5.2520739746093750e+02" cType="1" res="-7.8048624098300934e-02" rms="4.0655696392059326e-01" purity="3.1263720989227295e-01" nType="0">
          <Node pos="l" depth="2" NCoef="0" IVar="-1" Cut="0.0000000000000000e+00" cType="1" res="-4.3833898380398750e-03" rms="4.1406440734863281e-01" purity="3.4427657723426819e-01" nType="-99"/>
          <Node pos="r" depth="2" NCoef="0" IVar="-1" Cut="0.0000000000000000e+00" cType="1" res="-1.9924459978938103e-02" rms="3.7431082129478455e-01" purity="2.4465417861938477e-01" nType="-99"/>
        </Node>
        <Node pos="r" depth="1" NCoef="0" IVar="3" Cut="1.4240495300292969e+02" cType="1" res="3.0949754640460014e-02" rms="4.1585439443588257e-01" purity="5.7790154218673706e-01" nType="0">
          <Node pos="l" depth="2" NCoef="0" IVar="-1" Cut="0.0000000000000000e+00" cType="1" res="5.8506806381046772e-03" rms="4.0964341163635254e-01" purity="6.0078936815261841e-01" nType="-99"/>
          <Node pos="r" depth="2" NCoef="0" IVar="-1" Cut="0.0000000000000000e+00" cType="1" res="-2.1752042695879936e-02" rms="4.2837491631507874e-01" purity="2.9187446832656860e-01" nType="-99"/>
        </Node>
      </Node>
    </BinaryTree>
    <BinaryTree type="DecisionTree" boostWeight="1.0000000000000000e+00" itree="57">
      <Node pos="s" depth="0" NCoef="0" IVar="2" Cut="9.5382972717285156e+01" cType="1" res="-1.1151252314448357e-02" rms="4.1774782538414001e-01" purity="4.9145433306694031e-01" nType="0">
        <Node pos="l" depth="1" NCoef="0" IVar="4" Cut="4.6854614257812500e+02" cType="1" res="-1.4223013818264008e-01" rms="3.1701180338859558e-01" purity="1.2526163458824158e-01" nType="0">
          <Node pos="l" depth="2" NCoef="0" IVar="-1" Cut="0.0000000000000000e+00" cType="1" res="-1.5556496568024158e-02" rms="3.3934944868087769e-01" purity="1.4528164267539978e-01" nType="-99"/>
          <Node pos="r" depth="2" NCoef="0" IVar="-1" Cut="0.0000000000000000e+00" cType="1" res="-2.4614326655864716e-02" rms="2.6857241988182068e-01" purity="9.1734968125820160e-02" nType="-99"/>
        </Node>
        <Node pos="r" depth="1" NCoef="0" IVar="3" Cut="1.3567362976074219e+02" cType="1" res="4.4080461375415325e-03" rms="4.2546159029006958e-01" purity="5.3492212295532227e-01" nType="0">
          <Node pos="l" depth="2" NCoef="0" IVar="-1" Cut="0.0000000000000000e+00" cType="1" res="2.5890236720442772e-03" rms="4.2169922590255737e-01" purity="5.5970847606658936e-01" nType="-99"/>
          <Node pos="r" depth="2" NCoef="0" IVar="-1" Cut="0.0000000000000000e+00" cType="1" res="-1.2741559185087681e-02" rms="4.3234375119209290e-01" purity="3.7311339378356934e-01" nType="-99"/>
        </Node>
      </Node>
    </BinaryTree>
    <BinaryTree type="DecisionTree" boostWeight="1.0000000000000000e+00" itree="58">
      <Node pos="s" depth="0" NCoef="0" IVar="5" Cut="1.0426452159881592e+00" cType="1" res="7.3705980321392417e-04" rms="4.1296535730361938e-01" purity="5.0261592864990234e-01" nType="0">
        <Node pos="l" depth="1" NCoef="0" IVar="1" Cut="1.0589117431640625e+02" cType="1" res="4.1067615151405334e-02" rms="4.0281951427459717e-01" purity="5.8874940872192383e-01" nType="0">
          <Node pos="l" depth="2" NCoef="0" IVar="-1" Cut="0.0000000000000000e+00" cType="1" res="-6.3755461014807224e-03" rms="4.1516250371932983e-01" purity="2.8404530882835388e-01" nType="-99"/>
          <Node pos="r" depth="2" NCoef="0" IVar="-1" Cut="0.0000000000000000e+00" cType="1" res="9.8400795832276344e-03" rms="3.9059606194496155e-01" purity="7.2157871723175049e-01" nType="-99"/>
        </Node>
        <Node pos="r" depth="1" NCoef="0" IVar="4" Cut="6.8663330078125000e+02" cType="1" res="-5.5530216544866562e-02" rms="4.2030051350593567e-01" purity="3.8244655728340149e-01" nType="0">
          <Node pos="l" depth="2" NCoef="0" IVar="-1" Cut="0.0000000000000000e+00" cType="1" res="-3.9209262467920780e-03" rms="4.2805686593055725e-01" purity="4.0619713068008423e-01" nType="-99"/>
          <Node pos="r" depth="2" NCoef="0" IVar="-1" Cut="0.0000000000000000e+00" cType="1" res="-2.0815810188651085e-02" rms="3.5715398192405701e-01" purity="2.6093846559524536e-01" nType="-99"/>
        </Node>
      </Node>
    </BinaryTree>
    <BinaryTree type="DecisionTree" boostWeight="1.0000000000000000e+00" itree="59">
      <Node pos="s" depth="0" NCoef="0" IVar="2" Cut="1.3881272888183594e+02" cType="1" res="-2.7961009182035923e-03" rms="4.1771569848060608e-01" purity="5.0051069259643555e-01" nType="0">
        <Node pos="l" depth="1" NCoef="0" IVar="3" Cut="1.3807734680175781e+02" cType="1" res="1.8607666715979576e-02" rms="4.1266807913780212e-01" purity="5.3164976835250854e-01" nType="0">
          <Node pos="l" depth="2" NCoef="0" IVar="-1" Cut="0.0000000000000000e+00" cType="1" res="4.0966412052512169e-03" rms="4.0918025374412537e-01" purity="5.4840886592864990e-01" nType="-99"/>
          <Node pos="r" depth="2" NCoef="0" IVar="-1" Cut="0.0000000000000000e+00" cType="1" res="-1.4913015067577362e-02" rms="4.1807559132575989e-01" purity="3.6515733599662781e-01" nType="-99"/>
        </Node>
        <Node pos="r" depth="1" NCoef="0" IVar="3" Cut="1.2499606323242188e+02" cType="1" res="-1.0908280313014984e-01" rms="4.2629629373550415e-01" purity="3.4588047862052917e-01" nType="0">
          <Node pos="l" depth="2" NCoef="0" IVar="-1" Cut="0.0000000000000000e+00" cType="1" res="-1.9834687933325768e-02" rms="3.9525079727172852e-01" purity="2.7877199649810791e-01" nType="-99"/>
          <Node pos="r" depth="2" NCoef="0" IVar="-1" Cut="0.0000000000000000e+00" cType="1" res="-1.3156305067241192e-03" rms="4.5271155238151550e-01" purity="4.4869607686996460e-01" nType="-99"/>
        </Node>
      </Node>
    </BinaryTree>
    <BinaryTree type="DecisionTree" boostWeight="1.0000000000000000e+00" itree="60">
      <Node pos="s" depth="0" NCoef="0" IVar="5" Cut="2.7119061946868896e+00" cType="1" res="1.1745095252990723e-02" rms="4.1371014714241028e-01" purity="5.1603317260742188e-01" nType="0">
        <Node pos="l" depth="1" NCoef="0" IVar="1" Cut="7.3094451904296875e+01" cType="1" res="2.2436151280999184e-02" rms="4.1338956356048584e-01" purity="5.3446900844573975e-01" nType="0">
          <Node pos="l" depth="2" NCoef="0" IVar="-1" Cut="0.0000000000000000e+00" cType="1" res="-7.8035080805420876e-03" rms="3.9498528838157654e-01" purity="2.2606451809406281e-01" nType="-99"/>
          <Node pos="r" depth="2" NCoef="0" IVar="-1" Cut="0.0000000000000000e+00" cType="1" res="5.2713681943714619e-03" rms="4.1546875238418579e-01" purity="6.1755669116973877e-01" nType="-99"/>
        </Node>
        <Node pos="r" depth="1" NCoef="0" IVar="-1" Cut="0.0000000000000000e+00" cType="1" res="-2.1377483382821083e-02" rms="3.6903387308120728e-01" purity="1.8116664886474609e-01" nType="-99"/>
      </Node>
    </BinaryTree>
    <BinaryTree type="DecisionTree" boostWeight="1.0000000000000000e+00" itree="61">
      <Node pos="s" depth="0" NCoef="0" IVar="3" Cut="1.3501966857910156e+02" cType="1" res="-1.3576781377196312e-02" rms="4.0861433744430542e-01" purity="4.8521995544433594e-01" nType="0">
        <Node pos="l" depth="1" NCoef="0" IVar="2" Cut="9.7519126892089844e+01" cType="1" res="5.1916535012423992e-03" rms="4.0459606051445007e-01" purity="5.0614744424819946e-01" nType="0">
          <Node pos="l" depth="2" NCoef="0" IVar="-1" Cut="0.0000000000000000e+00" cType="1" res="-1.8287740647792816e-02" rms="3.0856424570083618e-01" purity="1.2033747881650925e-01" nType="-99"/>
          <Node pos="r" depth="2" NCoef="0" IVar="-1" Cut="0.0000000000000000e+00" cType="1" res="3.1424609478563070e-03" rms="4.1369143128395081e-01" purity="5.6663686037063599e-01" nType="-99"/>
        </Node>
        <Node pos="r" depth="1" NCoef="0" IVar="1" Cut="1.9829801940917969e+02" cType="1" res="-1.3818500936031342e-01" rms="4.1327333450317383e-01" purity="3.4627729654312134e-01" nType="0">
          <Node pos="l" depth="2" NCoef="0" IVar="-1" Cut="0.0000000000000000e+00" cType="1" res="-1.9855981692671776e-02" rms="4.0286219120025635e-01" purity="2.7674055099487305e-01" nType="-99"/>
          <Node pos="r" depth="2" NCoef="0" IVar="-1" Cut="0.0000000000000000e+00" cType="1" res="-3.2727181678637862e-04" rms="4.2891934514045715e-01" purity="6.3963091373443604e-01" nType="-99"/>
        </Node>
      </Node>
    </BinaryTree>
    <BinaryTree type="DecisionTree" boostWeight="1.0000000000000000e+00" itree="62">
      <Node pos="s" depth="0" NCoef="0" IVar="5" Cut="1.0427677631378174e+00" cType="1" res="-6.5794037654995918e-03" rms="4.1157227754592896e-01" purity="4.9415132403373718e-01" nType="0">
        <Node pos="l" depth="1" NCoef="0" IVar="1" Cut="9.4466056823730469e+01" cType="1" res="2.6741573587059975e-02" rms="4.0043860673904419e-01" purity="5.7158815860748291e-01" nType="0">
          <Node pos="l" depth="2" NCoef="0" IVar="-1" Cut="0.0000000000000000e+00" cType="1" res="-9.5705324783921242e-03" rms="3.8436466455459595e-01" purity="2.3486563563346863e-01" nType="-99"/>
          <Node pos="r" depth="2" NCoef="0" IVar="-1" Cut="0.0000000000000000e+00" cType="1" res="7.7984388917684555e-03" rms="3.9981457591056824e-01" purity="6.9630819559097290e-01" nType="-99"/>
        </Node>
        <Node pos="r" depth="1" NCoef="0" IVar="4" Cut="7.4405249023437500e+02" cType="1" res="-5.5873971432447433e-02" rms="4.2272198200225830e-01" purity="3.7959238886833191e-01" nType="0">
          <Node pos="l" depth="2" NCoef="0" IVar="-1" Cut="0.0000000000000000e+00" cType="1" res="-4.4075632467865944e-03" rms="4.2783042788505554e-01" purity="3.9859184622764587e-01" nType="-99"/>
          <Node pos="r" depth="2" NCoef="0" IVar="-1" Cut="0.0000000000000000e+00" cType="1" res="-2.1288154646754265e-02" rms="3.6439481377601624e-01" purity="2.5445157289505005e-01" nType="-99"/>
        </Node>
      </Node>
    </BinaryTree>
    <BinaryTree type="DecisionTree" boostWeight="1.0000000000000000e+00" itree="63">
      <Node pos="s" depth="0" NCoef="0" IVar="3" Cut="8.2037696838378906e+01" cType="1" res="3.7483617197722197e-03" rms="4.1421496868133545e-01" purity="5.0706875324249268e-01" nType="0">
